<?xml version="1.0" encoding="ISO-8859-1"?>
<smile version="1.0" id="Unnamed" numsamples="1000" discsamples="10000">
	<nodes>
		<cpt id="It">
			<state id="Present" />
			<state id="NotPresent" />
			<probabilities>0.9999970991883218 2.900811678280913e-006</probabilities>
		</cpt>
		<cpt id="In">
			<state id="Present" />
			<state id="NotPresent" />
			<probabilities>0.9133061564264157 0.0866938435735844</probabilities>
		</cpt>
		<cpt id="both">
			<state id="Present" />
			<state id="NotPresent" />
			<parents>In</parents>
			<probabilities>0.9371910519650785 0.0628089480349216 0.514037126993573 0.4859628730064269</probabilities>
		</cpt>
		<cpt id="countries">
			<state id="Present" />
			<state id="NotPresent" />
			<parents>In both</parents>
			<probabilities>0.9422401540286503 0.05775984597134978 0.5202000310377825 0.4797999689622175 0.5254472329972653 0.4745527670027349 0.5124682907213894 0.4875317092786106</probabilities>
		</cpt>
		<cpt id="was">
			<state id="Present" />
			<state id="NotPresent" />
			<parents>It countries</parents>
			<probabilities>0.9999997731079552 2.268920448546546e-007 0.9998661642040054 0.0001338357959945816 0.5786641814803875 0.4213358185196126 0.5302959467031214 0.4697040532968787</probabilities>
		</cpt>
		<cpt id="Even">
			<state id="Present" />
			<state id="NotPresent" />
			<probabilities>0.9753324525961785 0.02466754740382154</probabilities>
		</cpt>
		<cpt id="the">
			<state id="Present" />
			<state id="NotPresent" />
			<parents>It was Even</parents>
			<probabilities>0.9999999978794308 2.120569210874862e-009 0.9999999760387425 2.396125745107464e-008 0.5328474639292443 0.4671525360707557 0.5317089904769335 0.4682910095230666 0.5682932004422873 0.4317067995577129 0.5681327152073529 0.431867284792647 0.5250066762577944 0.4749933237422056 0.5249187457170012 0.475081254282999</probabilities>
		</cpt>
		<cpt id="best">
			<state id="Present" />
			<state id="NotPresent" />
			<parents>was the</parents>
			<probabilities>0.9999331561004451 6.684389955494199e-005 0.5280372301546005 0.4719627698453996 0.5268478420217319 0.4731521579782682 0.5073332870321193 0.4926667129678807</probabilities>
		</cpt>
		<cpt id="worst">
			<state id="Present" />
			<state id="NotPresent" />
			<parents>was the</parents>
			<probabilities>0.8890335162295338 0.1109664837704663 0.5071560717936241 0.4928439282063759 0.5117610988055386 0.4882389011944613 0.4965638200241087 0.5034361799758914</probabilities>
		</cpt>
		<cpt id="age">
			<state id="Present" />
			<state id="NotPresent" />
			<parents>was the</parents>
			<probabilities>0.9128059333045019 0.08719406669549801 0.4918876054737454 0.5081123945262547 0.5105654672712093 0.4894345327287907 0.5001844847325575 0.4998155152674426</probabilities>
		</cpt>
		<cpt id="epoch">
			<state id="Present" />
			<state id="NotPresent" />
			<parents>was the</parents>
			<probabilities>0.9603266913324134 0.03967330866758656 0.5086450937142633 0.4913549062857368 0.4974355842010677 0.5025644157989323 0.5013772150925877 0.4986227849074123</probabilities>
		</cpt>
		<cpt id="season">
			<state id="Present" />
			<state id="NotPresent" />
			<parents>was the</parents>
			<probabilities>0.8728607015668046 0.1271392984331954 0.4952817575427062 0.5047182424572939 0.4988780862610258 0.5011219137389741 0.5020030494031506 0.4979969505968495</probabilities>
		</cpt>
		<cpt id="spring">
			<state id="Present" />
			<state id="NotPresent" />
			<parents>was the</parents>
			<probabilities>0.915659921813012 0.08434007818698799 0.4941456700696826 0.5058543299303174 0.5049444595528038 0.4950555404471963 0.501282417277218 0.4987175827227821</probabilities>
		</cpt>
		<cpt id="winter">
			<state id="Present" />
			<state id="NotPresent" />
			<parents>was the</parents>
			<probabilities>0.9982634898144828 0.001736510185517221 0.5122141738193606 0.4877858261806394 0.5024982871761643 0.4975017128238357 0.4997228375017506 0.5002771624982494</probabilities>
		</cpt>
		<cpt id="year">
			<state id="Present" />
			<state id="NotPresent" />
			<parents>was the</parents>
			<probabilities>0.9970338465664086 0.002966153433591419 0.5009007241677482 0.4990992758322518 0.5007213040105826 0.4992786959894174 0.5003005586993423 0.4996994413006576</probabilities>
		</cpt>
		<cpt id="of">
			<state id="Present" />
			<state id="NotPresent" />
			<parents>the best worst age epoch season spring winter year</parents>
			<probabilities>0.9999999963307185 3.669281621963825e-009 0.9999967052438068 3.294756193279544e-006 0.9999241897194805 7.581028051956765e-005 0.9999003156151729 9.968438482712624e-005 0.9999990669964157 9.330035843349771e-007 0.9999869026861764 1.309731382374076e-005 0.999986652457794 1.334754220610978e-005 0.999986378968005 1.362103199495051e-005 0.9999997427354851 2.572645148277854e-007 0.9999826889855799 1.731101442015356e-005 0.9998594409470392 0.0001405590529607438 0.999854347165306 0.0001456528346940423 0.9999746550109473 2.53449890527291e-005 0.9999620260790048 3.79739209951662e-005 0.9999677092778896 3.229072211043101e-005 0.9999676192708642 3.23807291356905e-005 0.9999906054116331 9.394588366900826e-006 0.9999661365469149 3.386345308514592e-005 0.9999769704519361 2.302954806388351e-005 0.9999767247271187 2.327527288129108e-005 0.999992483387272 7.516612727929331e-006 0.9999915806846431 8.419315356821217e-006 0.9999927044090783 7.295590921825277e-006 0.9999926983852462 7.301614753790661e-006 0.9999838723990587 1.612760094122381e-005 0.9999806069507471 1.939304925283594e-005 0.9999880537503116 1.194624968843445e-005 0.9999880370153319 1.196298466809187e-005 0.9999901801890447 9.819810955176157e-006 0.9999900178636939 9.98213630602789e-006 0.9999907971258893 9.202874110604736e-006 0.9999907959196948 9.204080305296525e-006 0.999983752131567 1.624786843315258e-005 0.9996567132408498 0.0003432867591501821 0.9987934347200544 0.001206565279945666 0.9987634522743696 0.001236547725630372 0.9990180935586904 0.000981906441309486 0.9987083893931699 0.00129161060683008 0.9986278910531756 0.001372108946824445 0.9986252369550368 0.001374763044963143 0.9990898805082661 0.0009101194917339202 0.9985807280819211 0.001419271918078841 0.9984891372360124 0.001510862763987638 0.9984842054224465 0.001515794577553388 0.998552552902941 0.001447447097059099 0.998494026959929 0.00150597304007104 0.9984871468721278 0.001512853127872254 0.9984867273638028 0.001513272636197072 0.9986326600887141 0.001367339911285948 0.9984511226714274 0.001548877328572628 0.9984037134878667 0.001596286512133204 0.9984021796060072 0.001597820393992898 0.9984198400608543 0.001580159939145691 0.9984022648199453 0.001597735180054614 0.998399616212444 0.001600383787555952 0.998399470880024 0.001600529119975934 0.9984290760879643 0.001570923912035862 0.9984006769016709 0.001599323098329065 0.9983976028359769 0.001602397164023051 0.9983973745967786 0.00160262540322129 0.9984010823980672 0.001598917601932801 0.9983985003176684 0.001601499682331495 0.9983981912861176 0.001601808713882408 0.9983981485218704 0.001601851478129649 0.9999895463875685 1.045361243154622e-005 0.9993077356514494 0.0006922643485506663 0.9938285554334528 0.00617144456654707 0.9936015141178778 0.006398485882122272 0.9950936840602863 0.004906315939713707 0.9928538425855064 0.007146157414493619 0.9920787053993762 0.007921294600623876 0.9920565666134913 0.007943433386508655 0.9943558625826413 0.005644137417358732 0.9896209479366633 0.01037905206333671 0.9885229199600348 0.01147708003996509 0.988468617176087 0.01153138282391288 0.9891381544171853 0.01086184558281463 0.9885354711741491 0.01146452882585075 0.9884613123184215 0.01153868768157844 0.9884568172465691 0.01154318275343105 0.986542483680715 0.01345751631928503 0.9840450512392841 0.01595494876071604 0.9832246076628006 0.01677539233719945 0.9832013328975113 0.01679866710248862 0.9834406514457378 0.01655934855426235 0.9831904153043386 0.01680958469566143 0.983146188050866 0.01685381194913406 0.9831441224338171 0.01685587756618285 0.9835657532268808 0.01643424677311924 0.9831608664110366 0.01683913358896351 0.9830999297326821 0.01690007026731788 0.9830965996928275 0.01690340030717247 0.9831368048485613 0.01686319515143875 0.9831000448352175 0.01689995516478243 0.9830954154828615 0.01690458451713852 0.9830948975772782 0.01690510242272175 0.9850923375856648 0.01490766241433509 0.9775741978160286 0.02242580218397132 0.9752370798450475 0.02476292015495246 0.9751576827114411 0.02484231728855883 0.9760112939045457 0.02398870609545428 0.9751306530953008 0.02486934690469917 0.9749972131179012 0.02500278688209873 0.9749905024948171 0.02500949750518285 0.9764893137090345 0.02351068629096546 0.9750742796572971 0.02492572034270286 0.9748895118729701 0.02511048812702987 0.9748784090854666 0.02512159091453336 0.9750190004489563 0.02498099955104371 0.9748881004931199 0.02511189950688 0.974874804398318 0.02512519560168213 0.9748735461737292 0.02512645382627067 0.975290925468372 0.02470907453162805 0.974884087745799 0.0251159122542009 0.9748114462635441 0.02518855373645589 0.9748079567723188 0.02519204322768105 0.9748468816898691 0.02515311831013094 0.9748100088577397 0.02518999114226027 0.9748046921478203 0.02519530785217988 0.9748040580388377 0.0251959419611622 0.9748716825657635 0.02512831743423639 0.9748122228112199 0.02518777718877996 0.9748044704611656 0.02519552953883452 0.9748036579444807 0.02519634205551933 0.9748107439950356 0.02518925600496437 0.9748050638284491 0.02519493617155073 0.9748034919948757 0.02519650800512429 0.9748030700753273 0.02519692992467281 0.5392004353240634 0.4607995646759367 0.5354524418806471 0.4645475581193528 0.5244316146652222 0.475568385334778 0.52433146710018 0.4756685328998201 0.5243210184754366 0.4756789815245633 0.5239903899474033 0.4760096100525967 0.5233749300872426 0.4766250699127574 0.5233628076529293 0.4766371923470706 0.5222123754727998 0.4777876245272001 0.5216706320939544 0.4783293679060456 0.5205449828353482 0.4794550171646517 0.5205273535914063 0.4794726464085936 0.5205750072807669 0.4794249927192332 0.5205238231645445 0.4794761768354555 0.5204537592592213 0.4795462407407786 0.5204486648739607 0.4795513351260392 0.5179045254328736 0.4820954745671264 0.5177524396546042 0.4822475603453958 0.5173743701997394 0.4826256298002604 0.5173665966873287 0.4826334033126715 0.5173804269212415 0.4826195730787584 0.5173635350733599 0.4826364649266402 0.5173276020523036 0.4826723979476964 0.5173233423782782 0.4826766576217217 0.5173730228249289 0.4826269771750711 0.517347718019441 0.4826522819805592 0.5173013052793778 0.4826986947206222 0.5172967378676764 0.4827032621323235 0.5173221203624167 0.4826778796375835 0.5173162585663713 0.4826837414336287 0.517311094610637 0.4826889053893629 0.5173070923779177 0.4826929076220823 0.5168695765759768 0.4831304234240233 0.5164923354041939 0.4835076645958061 0.5156887652513251 0.4843112347486749 0.5156754385819471 0.4843245614180529 0.5157172837610553 0.4842827162389447 0.5156806972643987 0.4843193027356014 0.5156258671463979 0.4843741328536022 0.5156213047997005 0.4843786952002994 0.5157530135107045 0.4842469864892955 0.5156953068610335 0.4843046931389665 0.515594625000831 0.4844053749991691 0.5155894342961862 0.4844105657038137 0.5156134790631939 0.4843865209368062 0.5156049240434805 0.4843950759565197 0.5155893630865925 0.4844106369134075 0.5155854889763447 0.4844145110236555 0.5156291623171511 0.4843708376828488 0.5156105394588897 0.4843894605411103 0.5155720302965162 0.4844279697034838 0.515567807194682 0.4844321928053181 0.5155853208801989 0.4844146791198011 0.5155802113585923 0.4844197886414077 0.5155677675102602 0.4844322324897399 0.5155639584387273 0.4844360415612729 0.5155912825974036 0.4844087174025964 0.5155852494872036 0.4844147505127964 0.515569760050801 0.4844302399491989 0.5155658375790403 0.4844341624209598 0.5155832424698761 0.4844167575301239 0.5155792239137345 0.4844207760862655 0.5155677509967488 0.4844322490032513 0.5155639513369656 0.4844360486630345 0.5125447473054062 0.4874552526945938 0.5120075725853027 0.4879924274146972 0.5106837788995383 0.4893162211004617 0.5106662508475192 0.4893337491524809 0.5107135916288125 0.4892864083711875 0.5106631395790385 0.4893368604209615 0.5105798125867613 0.4894201874132387 0.5105749051017047 0.4894250948982953 0.5106445197747406 0.4893554802252596 0.5105639692354138 0.489436030764586 0.5104407480272232 0.4895592519727767 0.5104349757628561 0.4895650242371439 0.5104591715069209 0.4895408284930791 0.5104486281285752 0.4895513718714248 0.5104285671608565 0.4895714328391435 0.5104246565482851 0.4895753434517149 0.5103519149898874 0.4896480850101126 0.5103270171816774 0.4896729828183226 0.5102708857249717 0.4897291142750282 0.5102665136094283 0.4897334863905716 0.5102846350057618 0.489715364994238 0.5102789931763027 0.4897210068236972 0.5102655778621551 0.4897344221378448 0.5102617699632387 0.4897382300367614 0.5102901423515662 0.4897098576484337 0.5102832239116477 0.4897167760883523 0.5102686116082748 0.4897313883917253 0.5102646814291511 0.4897353185708488 0.5102800562871391 0.4897199437128609 0.5102759740294114 0.4897240259705886 0.5102650286160663 0.4897349713839336 0.5102612422937476 0.4897387577062525 0.510331478954802 0.489668521045198 0.5102745485531105 0.4897254514468895 0.5101687224703366 0.4898312775296632 0.5101637162593813 0.4898362837406188 0.5101837811116153 0.4898162188883846 0.5101754765035245 0.4898245234964757 0.5101598054859295 0.4898401945140705 0.5101561166371172 0.4898438833628828 0.5101946828013882 0.4898053171986117 0.510183285575316 0.4898167144246839 0.5101587181667978 0.4898412818332023 0.510154864713375 0.4898451352866249 0.5101735009758038 0.4898264990241961 0.510169196633659 0.4898308033663411 0.5101583364620215 0.4898416635379786 0.5101547323829854 0.4898452676170146 0.5101797431799332 0.4898202568200669 0.5101739277955563 0.4898260722044437 0.5101599615005895 0.4898400384994105 0.5101562298607173 0.4898437701392828 0.5101720279470194 0.4898279720529806 0.5101682010507778 0.4898317989492224 0.5101574927708094 0.4898425072291905 0.5101538804314804 0.4898461195685195 0.5101756761824222 0.4898243238175778 0.5101716415419064 0.4898283584580935 0.5101598736895359 0.4898401263104641 0.5101561700905999 0.4898438299094002 0.510172229162539 0.4898277708374609 0.5101685436038939 0.4898314563961063 0.510157942606602 0.4898420573933981 0.510154316763591 0.489845683236409 0.5200812624538689 0.4799187375461311 0.5200784959213755 0.4799215040786246 0.5200386359395671 0.4799613640604329 0.5200359208693619 0.479964079130638 0.5200895144750292 0.4799104855249709 0.5200867535977255 0.4799132464022745 0.5200459457258091 0.479954054274191 0.5200432373862278 0.4799567626137722 0.5200865905831722 0.4799134094168278 0.5200838454997703 0.4799161545002298 0.5200439381702168 0.4799560618297833 0.5200412419211601 0.47995875807884 0.5200936514784096 0.4799063485215905 0.5200909066097597 0.4799090933902404 0.5200512080546935 0.4799487919453066 0.5200485175027232 0.4799514824972768 0.5200676338729977 0.4799323661270024 0.5200648878415998 0.4799351121584003 0.5200261708033813 0.4799738291966187 0.5200234742770757 0.4799765257229242 0.520076597260681 0.479923402739319 0.5200738565514387 0.4799261434485614 0.5200340535729867 0.4799659464270133 0.5200313636206777 0.4799686363793222 0.5200728391632095 0.4799271608367906 0.5200701096061818 0.4799298903938182 0.5200310747262348 0.4799689252737652 0.5200283963479617 0.4799716036520383 0.5200820595023357 0.4799179404976645 0.5200793357648518 0.4799206642351482 0.5200390551185775 0.4799609448814225 0.5200363830491319 0.4799636169508681 0.5200839596033773 0.4799160403966227 0.5200811872159201 0.4799188127840799 0.5200415178394747 0.4799584821605253 0.5200387992135185 0.4799612007864815 0.5200904500227476 0.4799095499772524 0.5200876830177859 0.4799123169822142 0.5200510093514362 0.4799489906485638 0.5200482969463887 0.4799517030536113 0.5200831184686827 0.4799168815313173 0.5200803637620478 0.4799196362379523 0.5200485089821499 0.4799514910178501 0.5200458093125235 0.4799541906874765 0.5201266372600956 0.4798733627399046 0.5201238868140595 0.4798761131859406 0.5200558954125449 0.4799441045874551 0.5200532006293462 0.4799467993706538 0.520071282856182 0.479928717143818 0.5200685319747158 0.4799314680252843 0.520028881474472 0.479971118525528 0.5200261811700022 0.4799738188299977 0.5200780488474641 0.4799219511525359 0.5200753025881639 0.479924697411836 0.5200362251321641 0.4799637748678359 0.5200335312892163 0.4799664687107837 0.5200789009371316 0.4799210990628685 0.5200761664719281 0.4799238335280719 0.5200339060554086 0.4799660939445914 0.5200312235463576 0.4799687764536424 0.5200860755737561 0.479913924426244 0.5200833458665565 0.4799166541334436 0.5200415232173554 0.4799584767826446 0.520038847118548 0.479961152881452 0.5198740695131988 0.4801259304868012 0.5198712760687553 0.4801287239312448 0.5198425828535137 0.4801574171464863 0.519839838747815 0.4801601612521849 0.5198874173608126 0.4801125826391875 0.5198846291340311 0.4801153708659688 0.5198436777706472 0.4801563222293527 0.5198409403171292 0.4801590596828708 0.5198847986568557 0.4801152013431444 0.5198820212371548 0.4801179787628453 0.5198396082944793 0.4801603917055208 0.5198368822338475 0.4801631177661526 0.5198917743447994 0.4801082256552006 0.5198890032592065 0.4801109967407934 0.5198472186129061 0.480152781387094 0.5198444993447554 0.4801555006552447 0.5198652610557036 0.4801347389442964 0.5198624876161424 0.4801375123838577 0.5198223257979959 0.4801776742020041 0.5198196000057506 0.4801803999942496 0.5198731345004914 0.4801268654995086 0.5198703664411932 0.4801296335588068 0.5198313891382635 0.4801686108617365 0.5198286701090517 0.4801713298909484 0.5198698687205998 0.4801301312794002 0.5198671129064544 0.4801328870935456 0.5198283102886645 0.4801716897113356 0.51982560286723 0.4801743971327701 0.5198783495806335 0.4801216504193666 0.5198755984211182 0.4801244015788819 0.5198366888807491 0.4801633111192509 0.5198339880541689 0.4801660119458311 0.5198867377825667 0.4801132622174335 0.5198839386006805 0.4801160613993195 0.5198410251204252 0.4801589748795749 0.5198382772766592 0.4801617227233408 0.5198852062351365 0.4801147937648637 0.5198824121342653 0.4801175878657347 0.5198466011721535 0.4801533988278465 0.5198438598136385 0.4801561401863615 0.5198907571684084 0.4801092428315917 0.5198879726782506 0.4801120273217494 0.5198434353296884 0.4801565646703116 0.5198407056257777 0.4801592943742224 0.5198822691535489 0.4801177308464513 0.5198794917687756 0.4801205082312245 0.5198579840733025 0.4801420159266975 0.519855260880545 0.480144739119455 0.5198685806393013 0.4801314193606986 0.5198658017997702 0.4801341982002299 0.5198255861575032 0.4801744138424969 0.5198228567065136 0.4801771432934864 0.5198760328425689 0.4801239671574311 0.5198732592211168 0.4801267407788833 0.5198322866345211 0.4801677133654789 0.5198295638680283 0.4801704361319717 0.5198733188432332 0.4801266811567669 0.5198705569487486 0.4801294430512514 0.5198318518828524 0.4801681481171476 0.5198291408975666 0.4801708591024334 0.519884059481367 0.4801159405186332 0.5198813029336458 0.4801186970663544 0.5198388001672142 0.4801611998327859 0.5198360954706157 0.4801639045293843 0.5048542575908728 0.4951457424091272 0.5048515835988988 0.4951484164011012 0.5048201316659557 0.4951798683340443 0.5048175042832445 0.4951824957167555 0.5048586756660701 0.4951413243339298 0.504856008865013 0.4951439911349869 0.5048240044874116 0.4951759955125885 0.5048213839382701 0.4951786160617298 0.5048568049442677 0.4951431950557324 0.5048541489531034 0.4951458510468966 0.5048216775178451 0.4951783224821549 0.5048190685949699 0.49518093140503 0.5048618248211787 0.4951381751788214 0.5048591756180593 0.4951408243819408 0.5048258125345265 0.4951741874654736 0.5048232100656489 0.4951767899343511 0.5048453033993222 0.4951546966006778 0.5048426505955819 0.4951573494044182 0.5048118158522046 0.4951881841477955 0.5048092059980216 0.4951907940019785 0.5048497390620197 0.4951502609379804 0.5048470914188867 0.4951529085811133 0.5048157834099637 0.4951842165900363 0.5048131803149286 0.4951868196850714 0.5048478124865822 0.4951521875134179 0.5048451763643905 0.4951548236356095 0.5048139445264985 0.4951860554735015 0.5048113525715854 0.4951886474284146 0.5048520134934441 0.4951479865065559 0.5048493823743504 0.4951506176256496 0.5048181451582082 0.4951818548417918 0.504815559760516 0.4951844402394841 0.5048502658879593 0.4951497341120407 0.5048475884312028 0.4951524115687973 0.5048176685700988 0.4951823314299012 0.504815038330933 0.495184961669067 0.5048657795101877 0.4951342204898122 0.5048631073234335 0.4951368926765665 0.5048219532759757 0.4951780467240244 0.5048193291914466 0.4951806708085534 0.5048548323503339 0.4951451676496662 0.5048521720722413 0.4951478279277587 0.504819714852201 0.4951802851477989 0.5048171008967621 0.4951828991032379 0.5048647278881583 0.4951352721118418 0.5048620726959856 0.4951379273040145 0.5048250256723013 0.4951749743276988 0.504822419749954 0.4951775802500461 0.5048439961992396 0.4951560038007605 0.5048413386441635 0.4951586613558366 0.5048099042681297 0.4951900957318704 0.5048072913465899 0.4951927086534103 0.5048483524605962 0.4951516475394037 0.5048456994480802 0.4951543005519197 0.5048143324722209 0.4951856675277792 0.5048117260434524 0.4951882739565476 0.5048478838212229 0.495152116178777 0.5048452415490102 0.4951547584509898 0.5048124071331753 0.4951875928668247 0.5048098117000879 0.4951901882999122 0.5048551002602471 0.4951448997397531 0.5048524633795747 0.4951475366204254 0.5048174566237895 0.4951825433762106 0.5048148676224488 0.4951851323775512 0.5047509636491404 0.4952490363508597 0.5047482631442295 0.4952517368557705 0.5047152511628369 0.4952847488371631 0.5047125952715329 0.4952874047284672 0.5047555841422241 0.495244415857776 0.5047528900306465 0.4952471099693536 0.5047208446191595 0.4952791553808405 0.5047181955406005 0.4952818044593995 0.5047525899295624 0.4952474100704376 0.5047499060241304 0.4952500939758697 0.5047186189732608 0.4952813810267393 0.5047159809247805 0.4952840190752194 0.5047564416909743 0.4952435583090257 0.5047537642458394 0.4952462357541606 0.5047221939641025 0.4952778060358977 0.5047195628280045 0.4952804371719956 0.5047420243817824 0.4952579756182176 0.5047393434924602 0.4952606565075399 0.5047091015490738 0.4952908984509262 0.5047064629932452 0.4952935370067549 0.5047464824666362 0.4952535175333637 0.5047438074633383 0.4952561925366618 0.5047132652788834 0.4952867347211166 0.5047106336252436 0.4952893663747565 0.5047445230545309 0.4952554769454692 0.5047418573590217 0.4952581426409784 0.5047113488809425 0.4952886511190576 0.5047087282793362 0.4952912717206638 0.5047487239985088 0.4952512760014913 0.5047460659121696 0.4952539340878304 0.5047154039588019 0.4952845960411981 0.5047127903081176 0.4952872096918825 0.5047483441764274 0.4952516558235726 0.5047456386404683 0.4952543613595318 0.5047178122294522 0.4952821877705478 0.504715153287797 0.4952848467122029 0.5047567682254347 0.4952432317745653 0.5047540692020088 0.4952459307979911 0.5047178045722197 0.4952821954277802 0.5047151521507554 0.4952848478492447 0.5047521915516905 0.4952478084483095 0.5047495055333551 0.4952504944666449 0.5047166431478375 0.4952833568521625 0.5047140019423696 0.4952859980576304 0.5047497076208466 0.4952502923791535 0.504747025294117 0.4952529747058831 0.5047210076650575 0.4952789923349426 0.5047183731701759 0.4952816268298242 0.5047409821039047 0.4952590178960954 0.5047382969489833 0.4952617030510168 0.5047077668116747 0.4952922331883253 0.5047051252282792 0.4952948747717209 0.5047453909411581 0.4952546090588419 0.5047427110397628 0.4952572889602373 0.5047117909882963 0.4952882090117037 0.504709156150544 0.495290843849456 0.504743815923557 0.4952561840764431 0.5047411478243318 0.4952588521756682 0.504709599300108 0.495290400699892 0.5047069756910185 0.4952930243089815 0.5047487141589733 0.4952512858410268 0.5047460511876003 0.4952539488123998 0.5047136981958662 0.4952863018041338 0.5047110812399797 0.4952889187600204</probabilities>
		</cpt>
		<cpt id="times">
			<state id="Present" />
			<state id="NotPresent" />
			<parents>best of worst</parents>
			<probabilities>0.9931490131417464 0.006850986858253623 0.9716225359844677 0.02837746401553229 0.5076881111076925 0.4923118888923074 0.5059543466240771 0.4940456533759227 0.5349712708906959 0.4650287291093043 0.5247734872280537 0.4752265127719464 0.5073955164439686 0.4926044835560313 0.5017331258510421 0.4982668741489579</probabilities>
		</cpt>
		<cpt id="wisdom">
			<state id="Present" />
			<state id="NotPresent" />
			<parents>age of</parents>
			<probabilities>0.9166493689767065 0.08335063102329351 0.5080702560165608 0.4919297439834391 0.5300576337852141 0.4699423662147858 0.5004089114628105 0.4995910885371895</probabilities>
		</cpt>
		<cpt id="foolishness">
			<state id="Present" />
			<state id="NotPresent" />
			<parents>age of</parents>
			<probabilities>0.8796330850792135 0.1203669149207865 0.4906942276946828 0.509305772305317 0.5011865571992297 0.4988134428007702 0.4955174426576654 0.5044825573423346</probabilities>
		</cpt>
		<cpt id="belief">
			<state id="Present" />
			<state id="NotPresent" />
			<parents>epoch of</parents>
			<probabilities>0.8790449472227133 0.1209550527772867 0.5024658718683254 0.4975341281316748 0.5161643781479135 0.4838356218520866 0.5008686642195719 0.4991313357804282</probabilities>
		</cpt>
		<cpt id="incredulity">
			<state id="Present" />
			<state id="NotPresent" />
			<parents>epoch of</parents>
			<probabilities>0.880435132149919 0.1195648678500811 0.5012677789756133 0.4987322210243866 0.4987031314068888 0.5012968685931114 0.5000494248101267 0.4999505751898734</probabilities>
		</cpt>
		<cpt id="Light">
			<state id="Present" />
			<state id="NotPresent" />
			<parents>season of</parents>
			<probabilities>0.8870823889327113 0.1129176110672886 0.4954645069956151 0.5045354930043848 0.5090807034658511 0.4909192965341488 0.509851907956223 0.4901480920437769</probabilities>
		</cpt>
		<cpt id="Darkness">
			<state id="Present" />
			<state id="NotPresent" />
			<parents>season of</parents>
			<probabilities>0.877286868272132 0.122713131727868 0.5002161032726262 0.4997838967273738 0.5064475171846848 0.4935524828153153 0.4979950311359425 0.5020049688640575</probabilities>
		</cpt>
		<cpt id="hope">
			<state id="Present" />
			<state id="NotPresent" />
			<parents>spring of</parents>
			<probabilities>0.8549472937566408 0.1450527062433592 0.5022896304230917 0.4977103695769083 0.5204242840572013 0.4795757159427986 0.4998623688372019 0.500137631162798</probabilities>
		</cpt>
		<cpt id="it">
			<state id="Present" />
			<state id="NotPresent" />
			<parents>of times wisdom foolishness belief incredulity Light Darkness hope both countries</parents>
			<probabilities>0.9999395262264976 6.04737735024182e-005 0.9996829380775312 0.0003170619224688421 0.9996753025941984 0.0003246974058016847 0.9996691532959797 0.0003308467040202861 0.9999304237727157 6.957622728422429e-005 0.9999013564856198 9.864351438016074e-005 0.9999008936081003 9.910639189981029e-005 0.9999005422084726 9.945779152738763e-005 0.9999623466920566 3.765330794336688e-005 0.9999508197122147 4.918028778521172e-005 0.99995068483904 4.931516095993569e-005 0.9999505466590346 4.945334096540672e-005 0.9999372874730435 6.271252695655515e-005 0.9999337584777336 6.624152226630447e-005 0.9999337092112223 6.629078877776964e-005 0.9999336740184344 6.632598156576146e-005 0.999851930717952 0.0001480692820478946 0.9998046971970398 0.0001953028029602027 0.9998039791431043 0.0001960208568958971 0.9998034252891029 0.0001965747108970845 0.9999342192105579 6.57807894421646e-005 0.9999305355153411 6.946448465896259e-005 0.9999304852813499 6.951471865010023e-005 0.9999304476191248 6.955238087529321e-005 0.9999494878746004 5.051212539965427e-005 0.9999446330646656 5.536693533439025e-005 0.9999445707022814 5.542929771856098e-005 0.9999445208102915 5.547918970858734e-005 0.9999337617245682 6.623827543187923e-005 0.9999325060843926 6.749391560740238e-005 0.9999324893768623 6.751062313766904e-005 0.999932477414954 6.752258504602081e-005 0.9999309020162013 6.909798379877968e-005 0.9999134289178766 8.657108212332966e-005 0.9999131636247463 8.683637525361267e-005 0.9999129693072018 8.703069279836169e-005 0.9999219388075408 7.806119245928512e-005 0.9999183499887093 8.165001129079827e-005 0.9999182996866951 8.170031330486756e-005 0.9999182646297421 8.173537025784773e-005 0.9999082761159959 9.172388400415715e-005 0.999904951620229 9.504837977108925e-005 0.9999049054289931 9.509457100685333e-005 0.9999048735300139 9.51264699860703e-005 0.9999061807156093 9.381928439056721e-005 0.9999054835172373 9.451648276263839e-005 0.9999054740681922 9.45259318078467e-005 0.9999054676979435 9.453230205636371e-005 0.9998911618908156 0.0001088381091843865 0.9998872204838007 0.0001127795161992091 0.9998871665186563 0.0001128334813436841 0.9998871279521361 0.0001128720478638821 0.9998878812008268 0.0001121187991731543 0.9998870547044033 0.0001129452955967414 0.9998870438233125 0.0001129561766875663 0.9998870361557034 0.0001129638442965692 0.9998908731753263 0.0001091268246737425 0.9998895291355892 0.0001104708644108178 0.9998895112098125 0.0001104887901875062 0.999889498688322 0.0001105013116781225 0.9998899280256812 0.0001100719743187787 0.9998896253608397 0.0001103746391603556 0.9998896216956201 0.0001103783043798982 0.9998896190046238 0.0001103809953762204 0.9998625174853947 0.0001374825146054398 0.999827526667822 0.0001724733321780184 0.9998269808617478 0.000173019138252246 0.9998265865299547 0.0001734134700452945 0.9998207466007522 0.0001792533992477956 0.9998124603093005 0.0001875396906994624 0.9998123446382924 0.0001876553617075059 0.9998122633737959 0.0001877366262042191 0.999798254305739 0.0002017456942610355 0.9997908763315008 0.0002091236684992706 0.9997907753526005 0.0002092246473996136 0.9997907047457575 0.0002092952542425147 0.9997905428432955 0.0002094571567044734 0.9997889837554856 0.0002110162445144338 0.9997889624939352 0.0002110375060647703 0.9997889482221157 0.0002110517778841945 0.9997657252092107 0.0002342747907891694 0.9997571764363125 0.0002428235636874808 0.9997570600001212 0.0002429399998788468 0.9997569762927131 0.0002430237072868649 0.9997532096385796 0.0002467903614203777 0.9997513885429921 0.0002486114570079014 0.9997513643512301 0.0002486356487698906 0.9997513473781592 0.0002486526218407518 0.9997564119623078 0.0002435880376923133 0.9997533931595081 0.0002466068404918661 0.9997533522761912 0.0002466477238087087 0.9997533243017799 0.0002466756982202402 0.9997551223250878 0.0002448776749122694 0.9997544505798354 0.000245549420164661 0.9997544423404421 0.0002455576595579127 0.9997544363747565 0.0002455636252435166 0.999736965265867 0.0002630347341330163 0.9997242814841945 0.0002757185158055245 0.9997241089744361 0.0002758910255639479 0.9997239854632029 0.000276014536797105 0.9997182108889625 0.0002817891110375889 0.9997153291225622 0.0002846708774377135 0.9997152937859215 0.0002847062140785086 0.9997152673060292 0.0002847326939707822 0.9997195891078831 0.0002804108921169043 0.999717324345933 0.0002826756540670997 0.9997172956764379 0.000282704323562091 0.9997172751230945 0.0002827248769056043 0.9997174006905247 0.0002825993094752814 0.9997168568549811 0.0002831431450189282 0.9997168510221195 0.0002831489778806336 0.999716846286842 0.0002831537131580403 0.9997137609884065 0.0002862390115936145 0.9997114658495933 0.0002885341504068138 0.9997114375525742 0.0002885624474259126 0.9997114164031679 0.0002885835968321736 0.9997129926585405 0.0002870073414595578 0.9997124456625359 0.0002875543374639891 0.9997124399216057 0.0002875600783943894 0.9997124350954364 0.0002875649045637243 0.9997132930905784 0.0002867069094214435 0.9997123752591994 0.0002876247408006297 0.9997123654915676 0.0002876345084323556 0.9997123574601584 0.0002876425398416366 0.9997133150418678 0.0002866849581321586 0.9997130589378133 0.000286941062186807 0.9997130569068147 0.0002869430931854064 0.9997130547391835 0.0002869452608164133 0.9995289261426152 0.0004710738573847785 0.9993823424157791 0.0006176575842209381 0.9993800809153761 0.0006199190846238938 0.9993783777491523 0.000621622250847784 0.9994037013055115 0.0005962986944885414 0.999370862894483 0.0006291371055169388 0.999370411132239 0.0006295888677610573 0.9993700818292347 0.0006299181707653034 0.9993164603394693 0.0006835396605308301 0.9992865604869301 0.0007134395130699023 0.9992861414714136 0.0007138585285864252 0.9992858471435075 0.0007141528564925552 0.9992862476212452 0.0007137523787548924 0.9992799946401598 0.0007200053598401777 0.9992799108278956 0.0007200891721044682 0.9992798522910615 0.000720147708938497 0.9991951608176931 0.0008048391823069296 0.9991600656180579 0.0008399343819419791 0.9991595849021667 0.000840415097833326 0.9991592338940168 0.0008407661059831479 0.9991637554164403 0.000836244583559686 0.9991564745206514 0.0008435254793487021 0.9991563793050577 0.0008436206949422898 0.9991563100433819 0.0008436899566180586 0.9991716907825613 0.0008283092174387622 0.9991595331526123 0.0008404668473877902 0.9991593716447311 0.0008406283552688267 0.9991592565004241 0.0008407434995759782 0.99916117295526 0.0008388270447400954 0.9991584929630183 0.0008415070369816944 0.999158460598384 0.0008415394016160668 0.9991584362323731 0.0008415637676269624 0.9990837074078718 0.0009162925921282825 0.9990512533753317 0.0009487466246682262 0.9990508002391935 0.0009491997608065792 0.999050485068971 0.0009495149310290199 0.9990483443008638 0.0009516556991361479 0.99904148896698 0.0009585110330199858 0.9990413980982391 0.0009586019017610374 0.9990413346070224 0.0009586653929776585 0.9990374673955768 0.0009625326044232419 0.9990319460855826 0.0009680539144174546 0.9990318704628548 0.0009681295371451105 0.9990318200553002 0.00096817994469987 0.9990322658436358 0.0009677341563642285 0.9990310341587786 0.0009689658412212609 0.9990310189540798 0.0009689810459202388 0.9990310081070604 0.0009689918929397495 0.9990275793772383 0.0009724206227615745 0.9990220475691698 0.0009779524308301307 0.9990219738434915 0.0009780261565085885 0.9990219224841892 0.0009780775158108772 0.9990220804294923 0.0009779195705077893 0.9990208488610268 0.0009791511389731923 0.9990208340519495 0.0009791659480504469 0.9990208230368767 0.0009791769631232743 0.9990223475747723 0.0009776524252277049 0.9990202758445849 0.0009797241554150467 0.9990202505137125 0.0009797494862875524 0.9990202321260723 0.0009797678739278668 0.9990206210867052 0.0009793789132948498 0.9990200967984889 0.0009799032015111249 0.9990200916176866 0.0009799083823132922 0.9990200871146091 0.0009799128853907658 0.9989265997971327 0.001073400202867223 0.9988883869059327 0.001111613094067194 0.9988878515551156 0.001112148444884401 0.9988874799124065 0.001112520087593478 0.9988850908917659 0.001114909108234134 0.9988770491068735 0.001122950893126386 0.9988769418761023 0.001123058123897647 0.9988768673050964 0.001123132694903509 0.9988714035980055 0.001128596401994516 0.9988649200898799 0.001135079910120214 0.9988648309958302 0.001135169004169793 0.9988647716970736 0.001135228302926559 0.9988655747453182 0.001134425254681923 0.9988641382679608 0.001135861732039199 0.9988641203281631 0.001135879671836851 0.9988641076608086 0.001135892339191471 0.9988584514773892 0.001141548522610808 0.9988519474729242 0.001148052527075776 0.9988518601835255 0.001148139816474564 0.9988517996901479 0.001148200309852193 0.9988530486043951 0.001146951395605012 0.9988516115085812 0.001148388491418947 0.9988515940235742 0.001148405976425758 0.9988515811507374 0.001148418849262674 0.9988534251481652 0.001146574851834737 0.9988510077057232 0.00114899229427681 0.9988509778399883 0.001149022160011718 0.9988509563471425 0.001149043652857581 0.9988517977611302 0.00114820223886969 0.9988511923818474 0.001148807618152621 0.9988511862791113 0.001148813720888731 0.9988511810732142 0.001148818926785687 0.9988507927329544 0.00114920726704565 0.9988417564509866 0.001158243549013469 0.9988416449484293 0.001158355051570653 0.9988415619875665 0.001158438012433622 0.9988414469584842 0.001158553041515784 0.998839256770058 0.00116074322994198 0.9988392341604241 0.001160765839575893 0.9988392148651152 0.00116078513488481 0.9988410482710006 0.001158951728999296 0.9988393382184674 0.00116066178153269 0.9988393196153081 0.001160680384691878 0.9988393047083782 0.001160695291621753 0.9988395940412105 0.001160405958789474 0.9988391175675981 0.00116088243240189 0.9988391137010997 0.00116088629890024 0.9988391096688081 0.001160890331191902 0.9988395578117015 0.001160442188298519 0.998837862597092 0.001162137402908148 0.99883784461999 0.001162155380010034 0.9988378296393519 0.001162170360648107 0.9988382532630015 0.001161746736998402 0.9988377810959914 0.001162218904008671 0.9988377773687779 0.001162222631222152 0.9988377733334182 0.001162226666581797 0.9988385904989841 0.00116140950101595 0.9988378003609877 0.001162199639012225 0.998837793991972 0.001162206008027999 0.9988377872831222 0.001162212716877812 0.9988380789028331 0.001161921097166952 0.9988378183523671 0.001162181647632857 0.9988378169656113 0.001162183034388737 0.9988378147931537 0.001162185206846163 0.9973651280949041 0.002634871905095961 0.9967975067106208 0.003202493289379237 0.9967891829366019 0.003210817063398104 0.9967828481573989 0.003217151842601081 0.9964633395155894 0.003536660484410583 0.9963241845521156 0.00367581544788445 0.9963223132437663 0.003677686756233648 0.9963209278888575 0.003679072111142428 0.9959281156677735 0.004071884332226602 0.9958007651255034 0.004199234874496615 0.995799014912251 0.00420098508774899 0.9957977686900561 0.004202231309943958 0.9957827328497866 0.004217267150213339 0.9957559697583232 0.004244030241676873 0.9957556193301929 0.004244380669807106 0.9957553689166598 0.004244631083340167 0.9953210465860851 0.004678953413914977 0.9951752337056097 0.004824766294390328 0.9951732777376021 0.004826722262397998 0.995171828342899 0.004828171657100882 0.9951529652157185 0.004847034784281615 0.9951224011115273 0.004877598888472621 0.9951220107663332 0.004877989233666735 0.9951217202619802 0.00487827973801977 0.9951300194817976 0.004869980518202288 0.9950782968908574 0.004921703109142555 0.9950776253514236 0.004922374648576421 0.9950771363879366 0.004922863612063269 0.9950830834901849 0.004916916509815179 0.9950714950728998 0.004928504927100042 0.9950713605363194 0.004928639463680596 0.9950712552620489 0.004928744737951216 0.9945474183832354 0.005452581616764694 0.9944092495740833 0.005590750425916704 0.9944073589446071 0.005592641055393029 0.9944060226568441 0.005593977343155946 0.9943769790894333 0.005623020910566757 0.9943475757463111 0.005652424253688912 0.9943471963030341 0.005652803696965868 0.9943469241486231 0.005653075851376825 0.9943157466391751 0.005684253360824797 0.9942921179654224 0.005707882034577498 0.994291802523503 0.005708197476497124 0.9942915867837234 0.005708413216276517 0.9942924935142735 0.005707506485726612 0.9942871246070061 0.005712875392994024 0.9942870610473602 0.005712938952639855 0.9942870137559893 0.005712986244010736 0.9942581625968943 0.005741837403105773 0.9942344917799907 0.00576550822000942 0.994234183735071 0.005765816264928926 0.9942339640105531 0.005766035989446903 0.9942346968857316 0.005765303114268395 0.9942293288998376 0.005770671100162357 0.9942292669953069 0.00577073300469316 0.9942292190038367 0.005770780996163381 0.994234685228343 0.005765314771656924 0.9942256586507871 0.005774341349212946 0.9942255527530522 0.005774447246947648 0.9942254726665522 0.005774527333447859 0.9942272913256445 0.005772708674355685 0.9942249410403649 0.00577505895963523 0.9942249193096653 0.005775080690334737 0.9942248991265347 0.005775100873465257 0.9936278822724126 0.006372117727587463 0.9934657365806275 0.006534263419372441 0.9934635115879978 0.006536488412002179 0.9934619419629547 0.00653805803704535 0.9934271817251946 0.006572818274805362 0.9933928294056383 0.006607170594361543 0.9933923830822505 0.006607616917749499 0.9933920647059188 0.006607935294081184 0.9933542768359677 0.006645723164032395 0.9933266509119372 0.006673349088062957 0.993326279843849 0.006673720156150893 0.9933260272883742 0.006673972711625862 0.9933269425186391 0.006673057481360905 0.9933207124229546 0.00667928757704533 0.993320637713302 0.006679362286697986 0.9933205827601073 0.006679417239892803 0.9932854854377056 0.006714514562294532 0.9932578004155455 0.006742199584454536 0.9932574379579494 0.006742562042050606 0.9932571806380356 0.006742819361964326 0.9932579793293005 0.006742020670699495 0.9932517488522008 0.006748251147799141 0.9932516760690994 0.006748323930900589 0.9932516202811494 0.006748379718850637 0.9932578766954309 0.006742123304569033 0.9932473981624688 0.006752601837531146 0.9932472736772434 0.006752726322756603 0.9932471805693199 0.006752819430680105 0.9932491932019429 0.006750806798057084 0.9932464944599081 0.006753505540091893 0.9932464689547699 0.006753531045230062 0.9932464457500314 0.006753554249968617 0.9932327399539509 0.006767260046049097 0.9931937443766999 0.006806255623300006 0.9931932802795833 0.006806719720416727 0.9931929229563092 0.00680707704369071 0.9931944715684902 0.00680552843150989 0.9931847840991352 0.006815215900864865 0.9931846898027668 0.006815310197233171 0.9931846046028309 0.006815395397169119 0.9931856237646897 0.006814376235310326 0.9931780820840005 0.006821917915999378 0.9931780044437141 0.006821995556286065 0.9931779387550785 0.006822061244921539 0.9931794696026366 0.006820530397363543 0.9931773007910987 0.00682269920890143 0.9931772845636817 0.006822715436318196 0.9931772662140096 0.006822733785990384 0.9931790820206734 0.006820917979326574 0.9931716045614232 0.006828395438576835 0.9931715295929546 0.006828470407045341 0.9931714636244076 0.006828536375592545 0.9931729592352869 0.00682704076471297 0.9931708093250313 0.006829190674968694 0.9931707936787133 0.006829206321286591 0.9931707753249266 0.006829224675073482 0.9931740086609017 0.00682599133909823 0.9931704135302807 0.006829586469719217 0.9931703867992605 0.006829613200739502 0.9931703563013207 0.006829643698679448 0.9931715000212641 0.006828499978735851 0.9931702797353682 0.006829720264631819 0.9931702738441524 0.006829726155847633 0.9931702636661549 0.006829736333845132 0.9929636504880188 0.007036349511981207 0.9925020926347782 0.0074979073652218 0.9924958552324479 0.007504144767552107 0.9924911910344286 0.007508808965571349 0.9924398952609609 0.00756010473903906 0.9923393378526287 0.007660662147371292 0.9923380783831143 0.007661921616885624 0.9923371218301889 0.007662878169811165 0.9922996648695538 0.007700335130446088 0.9922185013179529 0.007781498682047102 0.9922174512292812 0.007782548770718875 0.9922166895554813 0.007783310444518825 0.9922231555508804 0.007776844449119703 0.9922046937019275 0.007795306298072414 0.9922044826957019 0.007795517304298012 0.9922043161262211 0.007795683873778977 0.9921806449020602 0.007819355097939769 0.9920986904997898 0.007901309500210221 0.9920976562680265 0.007902343731973542 0.992096875223811 0.007903124776188935 0.9921033044866717 0.007896695513328342 0.992084706343942 0.007915293656057924 0.9920844991242959 0.007915500875704178 0.992084328954884 0.007915671045116078 0.9921079769235401 0.007892023076459949 0.9920767482051797 0.007923251794820349 0.9920763942102865 0.007923605789713422 0.9920761103411334 0.007923889658866581 0.9920826063971846 0.007917393602815395 0.9920744727642812 0.007925527235718882 0.9920744002983387 0.007925599701661217 0.9920743289615296 0.007925671038470394 0.9920539977956944 0.007946002204305622 0.991984785726948 0.008015214273051919 0.9919839052301784 0.00801609476982164 0.991983263138233 0.00801673686176693 0.9919867378493944 0.008013262150605506 0.9919705742217075 0.00802942577829247 0.9919703966250224 0.00802960337497761 0.9919702525614773 0.008029747438522743 0.991974156314943 0.008025843685056993 0.9919614589461264 0.008038541053873615 0.9919613124919512 0.008038687508048826 0.9919612006004096 0.008038799399590494 0.9919635543240462 0.008036445675953793 0.9919601778313074 0.008039822168692456 0.9919601476515502 0.008039852348449781 0.991960118785459 0.00803988121454095 0.9919653327288047 0.008034667271195213 0.9919527465423983 0.008047253457601836 0.9919526051361658 0.008047394863834313 0.9919524926109097 0.008047507389090391 0.991954808335051 0.008045191664949009 0.9919514634347203 0.00804853656527973 0.9919514343522949 0.00804856564770513 0.9919514054406153 0.008048594559384588 0.9919565375358195 0.008043462464180376 0.9919509338331196 0.008049066166880389 0.9919508841074689 0.008049115892531116 0.9919508360031023 0.008049163996897679 0.9919524577194934 0.00804754228050672 0.9919506919629129 0.008049308037087215 0.9919506813042145 0.008049318695785466 0.991950666445919 0.008049333554080869 0.9919349363689641 0.008065063631035872 0.9918647110191854 0.008135288980814533 0.9918638109515683 0.008136189048431814 0.991863158558341 0.008136841441659028 0.9918664020617435 0.008133597938256456 0.9918501401515738 0.008149859848426163 0.9918499588027859 0.008150041197214197 0.991849813631859 0.008150186368140957 0.9918535004366903 0.008146499563309765 0.991840711122881 0.00815928887711904 0.991840561554317 0.008159438445683063 0.9918404486932203 0.008159551306779693 0.9918427466512029 0.008157253348797211 0.9918393835611846 0.008160616438815346 0.9918393527980581 0.008160647201941979 0.9918393240148223 0.008160675985177696 0.9918443556484166 0.008155644351583506 0.9918316777591206 0.008168322240879405 0.9918315333354245 0.008168466664575496 0.9918314198061953 0.0081685801938047 0.9918336686003026 0.008166331399697378 0.9918303371003594 0.008169662899640495 0.9918303074537589 0.008169692546241093 0.9918302786180636 0.008169721381936305 0.991835393211863 0.00816460678813691 0.991829810509487 0.008170189490512835 0.9918297598163057 0.008170240183694322 0.9918297118295406 0.008170288170459424 0.9918312968882962 0.0081687031117038 0.991829557916852 0.008170442083148039 0.9918295470890047 0.008170452910995257 0.9918295324468773 0.008170467553122654 0.991844512151552 0.008155487848447893 0.9918247263717035 0.008175273628296474 0.9918245405752987 0.008175459424701404 0.9918243666839526 0.008175633316047454 0.9918287071704037 0.00817129282959621 0.9918227870773057 0.008177212922694264 0.9918227479297148 0.008177252070285128 0.9918226975177537 0.008177302482246417 0.9918263737988426 0.008173626201157389 0.9918218719574372 0.008178128042562833 0.9918218398979795 0.008178160102020531 0.9918218018359311 0.008178198164068864 0.9918232262005002 0.008176773799499791 0.9918216689086232 0.008178331091376917 0.9918216617722044 0.0081783382277955 0.9918216487861356 0.008178351213864388 0.9918254894354769 0.008174510564523202 0.9918210291817196 0.00817897081828046 0.9918209982831543 0.008179001716845869 0.991820960251851 0.008179039748149116 0.9918223565352761 0.008177643464724002 0.9918208124034956 0.008179187596504375 0.9918208055212499 0.008179194478750134 0.9918207925823993 0.008179207417600806 0.9918233745060031 0.008176625493996982 0.9918208022312629 0.008179197768737089 0.991820790507209 0.00817920949279094 0.9918207690688606 0.008179230931139444 0.991821743036703 0.008178256963297034 0.9918207401614537 0.008179259838546263 0.9918207372807865 0.008179262719213645 0.9918207289510009 0.00817927104899909 0.5397458214249239 0.4602541785750761 0.5257535009531478 0.4742464990468522 0.5256878575787723 0.4743121424212276 0.5255259935013359 0.4744740064986642 0.5272631366485441 0.472736863351456 0.5242957383606626 0.4757042616393374 0.5242825485374772 0.4757174514625227 0.5242496043227117 0.4757503956772883 0.5257801332100306 0.4742198667899694 0.523474101647319 0.4765258983526811 0.5234633293174679 0.4765366706825321 0.523437782056971 0.4765622179430291 0.5238906731004916 0.4761093268995083 0.5233401144189839 0.4766598855810161 0.5233378832749089 0.4766621167250911 0.5233321142806512 0.4766678857193488 0.5248919713132796 0.4751080286867204 0.5225600555227946 0.4774399444772055 0.5225495858424363 0.4774504141575637 0.5225235652424474 0.4774764347575526 0.5229734564116418 0.4770265435883582 0.5224193401992294 0.4775806598007705 0.522417176134424 0.477582823865576 0.522411329408041 0.4775886705919591 0.5233024189569293 0.4766975810430706 0.5223809674122654 0.4776190325877348 0.5223772901600799 0.4776227098399201 0.5223675999422243 0.4776324000577759 0.5226307505752065 0.4773692494247936 0.5223691561335492 0.4776308438664509 0.5223683517771992 0.4776316482228008 0.5223657726059265 0.4776342273940733 0.523560918519885 0.476439081480115 0.5216398890404702 0.4783601109595297 0.5216310766541342 0.4783689233458658 0.5216100729952345 0.4783899270047655 0.5219842377132316 0.4780157622867683 0.5215087633236635 0.4784912366763366 0.5215069212284901 0.47849307877151 0.5215020274593253 0.4784979725406747 0.5218130538714858 0.4781869461285143 0.5214491260881524 0.4785508739118475 0.5214476228697442 0.4785523771302557 0.5214438785586769 0.4785561214413231 0.5215413159969575 0.4784586840030425 0.5214347983503083 0.4785652016496919 0.5214344664884399 0.47856553351156 0.5214334376725825 0.4785665623274176 0.5217514884424008 0.4782485115575993 0.5213857983865979 0.4786142016134021 0.5213843445700024 0.4786156554299977 0.5213805546686594 0.4786194453313406 0.5214765747485538 0.4785234252514463 0.5213700322641984 0.4786299677358017 0.5213697113204427 0.4786302886795574 0.5213686765618004 0.4786313234381996 0.5215457038294514 0.4784542961705486 0.521368667445848 0.4786313325541521 0.5213681222343545 0.4786318777656455 0.5213664089715541 0.478633591028446 0.5214264330992011 0.4785735669007989 0.521364927713326 0.4786350722866742 0.521364795005722 0.478635204994278 0.5213642287280361 0.4786357712719639 0.5221779332809921 0.477822066719008 0.5202632781941711 0.4797367218058289 0.520254403219264 0.4797455967807359 0.5202334129731289 0.479766587026871 0.5205978806387698 0.4794021193612301 0.520129236645868 0.479870763354132 0.5201273870737194 0.4798726129262806 0.5201225452344847 0.4798774547655155 0.5204268132378046 0.4795731867621954 0.5200677085980617 0.4799322914019383 0.5200661987130451 0.4799338012869549 0.5200624904606213 0.4799375095393786 0.5201568093684282 0.4798431906315718 0.5200530203250962 0.4799469796749038 0.5200526886530618 0.4799473113469382 0.5200516825876851 0.479948317412315 0.5203631215923508 0.4796368784076493 0.5200021722154845 0.4799978277845155 0.5200007118565869 0.4799992881434131 0.5199969570539945 0.4800030429460057 0.5200914721198051 0.4799085278801949 0.5199876327797587 0.4800123672202412 0.5199873120446245 0.4800126879553756 0.5199862997667801 0.48001370023322 0.5201578789320649 0.479842121067935 0.5199853180531402 0.4800146819468599 0.5199847730847885 0.4800152269152115 0.5199830969036855 0.4800169030963144 0.5200408430720646 0.4799591569279353 0.5199815155702957 0.4800184844297044 0.5199813839925062 0.4800186160074938 0.5199808363945399 0.4800191636054602 0.5205569028063921 0.479443097193608 0.5199501095758132 0.4800498904241868 0.5199481445971906 0.4800518554028094 0.5199421268365644 0.4800578731634356 0.5201283723274152 0.4798716276725847 0.5199288662404588 0.4800711337595413 0.5199284041580818 0.4800715958419182 0.5199265410319424 0.4800734589680576 0.5200713968875961 0.4799286031124039 0.5199225730091488 0.4800774269908513 0.5199222031350825 0.4800777968649175 0.5199208125670747 0.4800791874329254 0.5199752689409547 0.4800247310590453 0.5199193084744628 0.4800806915255372 0.5199192110379003 0.4800807889620997 0.5199187075540213 0.4800812924459788 0.5200648417775343 0.4799351582224656 0.5199162342291396 0.4800837657708604 0.5199158756304582 0.4800841243695417 0.5199144811726095 0.4800855188273905 0.5199684862439803 0.4800315137560198 0.5199127474092639 0.4800872525907361 0.5199126525762406 0.4800873474237593 0.5199121499440019 0.4800878500559981 0.5200062364795184 0.4799937635204816 0.519913778955541 0.480086221044459 0.5199136192437566 0.4800863807562434 0.5199127883868107 0.4800872116131894 0.5199504004403425 0.4800495995596576 0.5199124065933196 0.4800875934066804 0.5199123573609064 0.4800876426390937 0.5199120220032946 0.4800879779967056 0.5209720018173834 0.4790279981826168 0.518688653762668 0.481311346237332 0.5186784596865722 0.4813215403134277 0.5186530733311731 0.481346926668827 0.519092184691928 0.4809078153080721 0.5185422908040763 0.4814577091959236 0.5185401751580068 0.4814598248419931 0.5185343958562647 0.4814656041437353 0.5188953616636275 0.4811046383363724 0.518473654086868 0.481526345913132 0.5184719300164409 0.481528069983559 0.518467499624377 0.4815325003756231 0.5185795256167137 0.4814204743832862 0.5184598028196923 0.4815401971803077 0.5184594257229918 0.4815405742770081 0.5184582435387755 0.4815417564612246 0.5188353737430745 0.4811646262569254 0.5184109889229625 0.4815890110770374 0.5184093178370264 0.4815906821629736 0.5184048280038316 0.4815951719961684 0.5185085616769137 0.4814914383230864 0.5183886697723927 0.4816113302276073 0.5183883044381245 0.4816116955618757 0.5183871139907789 0.4816128860092212 0.5185906188764535 0.4814093811235465 0.5183914258857982 0.4816085741142018 0.5183908057375372 0.4816091942624628 0.5183888345586674 0.4816111654413325 0.5184537289532362 0.481546271046764 0.5183862476963301 0.4816137523036697 0.5183860986677212 0.4816139013322786 0.5183854645793045 0.4816145354206955 0.5187085337733058 0.4812914662266942 0.5183448994606849 0.4816551005393152 0.5183434767428437 0.4816565232571564 0.5183397231747088 0.4816602768252912 0.5184374704912392 0.4815625295087606 0.5183298298381542 0.4816701701618457 0.5183295135872928 0.4816704864127072 0.5183284703822859 0.4816715296177139 0.5184065723289978 0.4815934276710021 0.518325538367725 0.481674461632275 0.5183252824102045 0.4816747175897954 0.5183244968535232 0.4816755031464768 0.5183517200484084 0.4816482799515915 0.5183235771420128 0.4816764228579872 0.5183235149701637 0.4816764850298362 0.518323254767071 0.481676745232929 0.5184016104034516 0.4815983895965484 0.518320554420098 0.481679445579902 0.5183203070189411 0.4816796929810591 0.5183195168362865 0.4816804831637134 0.5183469279915576 0.4816530720084425 0.5183188696063062 0.4816811303936939 0.5183188093573382 0.4816811906426617 0.5183185490604573 0.4816814509395427 0.5183656256489457 0.4816343743510542 0.5183190578569777 0.4816809421430224 0.5183189559236011 0.4816810440763989 0.5183185254244642 0.4816814745755357 0.51833654407898 0.48166345592102 0.5183182721548706 0.4816817278451293 0.5183182436705501 0.4816817563294498 0.5183180791997246 0.4816819208002754 0.5186081595051033 0.4813918404948966 0.5182496890876508 0.4817503109123491 0.5182482607432197 0.4817517392567803 0.5182445466928746 0.4817554533071255 0.5183391387826491 0.4816608612173509 0.5182343568048342 0.4817656431951659 0.5182340410031315 0.4817659589968685 0.518233021869239 0.481766978130761 0.5183086965678045 0.4816913034321955 0.5182297254629786 0.4817702745370214 0.5182294696528478 0.4817705303471523 0.5182287013805667 0.4817712986194334 0.5182548354800354 0.4817451645199647 0.5182276939861811 0.4817723060138189 0.5182276323435837 0.4817723676564161 0.518227380805566 0.4817726191944342 0.5183040972939469 0.4816959027060531 0.5182250848299806 0.4817749151700194 0.5182248375903436 0.4817751624096566 0.5182240644871018 0.4817759355128981 0.5182499190423514 0.4817500809576486 0.5182228549194888 0.4817771450805113 0.518222795199454 0.4817772048005461 0.518222543497448 0.4817774565025521 0.5182679534888168 0.4817320465111832 0.5182230322472345 0.4817769677527655 0.5182229311688823 0.4817770688311176 0.5182225148541433 0.4817774851458566 0.5182400152788866 0.4817599847211134 0.5182225038014274 0.4817774961985726 0.5182224758502677 0.4817775241497323 0.5182223180276236 0.4817776819723763 0.5183738042064318 0.4816261957935683 0.5182225755185956 0.4817774244814044 0.5182222203977531 0.4817777796022467 0.5182208022777235 0.4817791977222765 0.518276484958426 0.4817235150415739 0.5182191964003413 0.4817808035996585 0.5182191013203551 0.4817808986796449 0.5182185834789532 0.4817814165210468 0.5182609685857716 0.4817390314142285 0.5182186907841624 0.4817813092158375 0.5182186161977949 0.4817813838022051 0.5182182342419293 0.4817817657580706 0.5182354622618517 0.4817645377381483 0.518218091905661 0.4817819080943389 0.5182180690072706 0.4817819309927294 0.5182179146880931 0.4817820853119069 0.5182604911031378 0.4817395088968621 0.518218379786575 0.4817816202134251 0.5182183072319195 0.4817816927680805 0.518217925895345 0.4817820741046551 0.5182347702317728 0.4817652297682271 0.5182174891666074 0.4817825108333926 0.5182174667650316 0.4817825332349685 0.5182173130769785 0.4817826869230216 0.5182464831013742 0.4817535168986258 0.5182178376527956 0.4817821623472043 0.5182178001886968 0.4817821998113033 0.5182175463016411 0.4817824536983588 0.5182298236435385 0.4817701763564615 0.5182175045600881 0.4817824954399118 0.5182174912121241 0.4817825087878759 0.518217382589254 0.4817826174107461 0.5172148040106697 0.4827851959893304 0.5155195805644702 0.4844804194355298 0.5155123218554155 0.4844876781445845 0.5154935915171088 0.4845064084828913 0.5158142787555978 0.4841857212444022 0.5153943417026382 0.4846056582973618 0.5153928229611384 0.4846071770388615 0.5153884488733965 0.4846115511266034 0.5156588705728595 0.4843411294271404 0.515337807411745 0.484662192588255 0.5153365715699247 0.4846634284300753 0.5153332271203229 0.484666772879677 0.5154188425445436 0.4845811574554564 0.5153246653930482 0.4846753346069519 0.5153243912692377 0.4846756087307624 0.5153234692007627 0.4846765307992375 0.5155966652320613 0.4844033347679387 0.5152737597698739 0.4847262402301261 0.5152725616507192 0.4847274383492808 0.5152691753440986 0.4847308246559013 0.5153551753660615 0.4846448246339384 0.5152609196141156 0.4847390803858844 0.5152606538929906 0.4847393461070095 0.5152597263004471 0.484740273699553 0.5154151546561352 0.4845848453438649 0.5152585999082406 0.4847414000917593 0.5152581491984102 0.4847418508015897 0.5152566136174356 0.4847433863825644 0.515309631782958 0.484690368217042 0.515255115913012 0.484744884086988 0.5152550050756647 0.4847449949243352 0.5152544958403648 0.4847455041596352 0.5154888082401075 0.4845111917598926 0.51520999689348 0.4847900031065201 0.5152089748045642 0.4847910251954359 0.5152061230644491 0.4847938769355509 0.5152830088813591 0.4847169911186409 0.515197762777008 0.484802237222992 0.5151975319730773 0.4848024680269228 0.5151967126852043 0.4848032873147957 0.5152573699725374 0.4847426300274627 0.5151933869102061 0.4848066130897938 0.5151932006540376 0.4848067993459624 0.5151925854725714 0.4848074145274285 0.5152145979405814 0.4847854020594185 0.5151917912212918 0.4848082087787082 0.5151917449066553 0.4848082550933446 0.5151915351188193 0.4848084648811807 0.5152528283807019 0.4847471716192981 0.5151888597130102 0.4848111402869898 0.5151886795672499 0.48481132043275 0.5151880613495511 0.4848119386504488 0.5152099917155967 0.4847900082844034 0.5151872601803188 0.4848127398196813 0.5151872152483663 0.4848127847516338 0.5151870055266486 0.4848129944733514 0.5152250605664623 0.4847749394335378 0.5151873427924231 0.4848126572075769 0.5151872668755375 0.4848127331244625 0.5151869200903358 0.4848130799096642 0.5152017880082903 0.4847982119917096 0.5151867527743934 0.4848132472256067 0.5151867309127965 0.4848132690872035 0.5151865959050975 0.4848134040949025 0.5153896820521864 0.4846103179478135 0.5151154272330002 0.4848845727669998 0.5151144018493804 0.4848855981506196 0.5151115858984074 0.4848884141015926 0.5151859330477242 0.4848140669522756 0.5151031184281011 0.4848968815718989 0.5151028882532394 0.4848971117467605 0.515102089577282 0.484897910422718 0.5151608790835409 0.4848391209164591 0.515098653651682 0.484901346348318 0.5150984677269074 0.4849015322730928 0.5150978673798774 0.4849021326201227 0.5151190323646742 0.484880967635326 0.5150970681289142 0.4849029318710857 0.5150970222914308 0.4849029777085691 0.5150968198132432 0.4849031801867567 0.5151562540019838 0.4848437459980162 0.5150940274296507 0.4849059725703494 0.515093847623361 0.484906152376639 0.5150932440781193 0.4849067559218806 0.51511431880187 0.48488568119813 0.5150924238873064 0.4849075761126935 0.515092379431464 0.484907620568536 0.5150921769624415 0.4849078230375585 0.5151288249631195 0.4848711750368805 0.5150924927234245 0.4849075072765755 0.5150924175790904 0.4849075824209095 0.5150920827638639 0.4849079172361362 0.5151063279842911 0.4848936720157089 0.5150919295593377 0.4849080704406623 0.5150919081505444 0.4849080918494556 0.5150917787177156 0.4849082212822845 0.5152129451280378 0.4847870548719622 0.5150913629554578 0.4849086370445421 0.5150911003245943 0.4849088996754058 0.5150899684446089 0.4849100315553911 0.5151357950681169 0.4848642049318832 0.5150888451860153 0.4849111548139848 0.5150887727910417 0.4849112272089584 0.5150883499663431 0.4849116500336568 0.515122807387856 0.4848771926121439 0.5150882098120893 0.4849117901879107 0.5150881532949181 0.4849118467050819 0.5150878419053566 0.4849121580946433 0.5151020767833341 0.4848979232166659 0.5150877079285202 0.4849122920714797 0.5150876900428085 0.4849123099571914 0.5150875625671658 0.4849124374328341 0.515122236033 0.4848777639670001 0.5150877821187362 0.4849122178812638 0.515087727072774 0.4849122729272261 0.5150874163462048 0.4849125836537951 0.5151015832078759 0.4848984167921241 0.5150872894548187 0.4849127105451812 0.5150872719352113 0.4849127280647887 0.5150871450118773 0.4849128549881226 0.5151111352650022 0.484888864734998 0.5150874440898531 0.484912555910147 0.5150874148332811 0.4849125851667189 0.5150872051786036 0.4849127948213964 0.5150974019274146 0.4849025980725854 0.5150871607082209 0.4849128392917791 0.5150871500275899 0.4849128499724101 0.5150870597530352 0.484912940246965 0.5157535446414197 0.4842464553585803 0.5150343453744056 0.4849656546255943 0.5150318376533053 0.4849681623466948 0.5150243908066883 0.4849756091933116 0.5152263333218466 0.4847736666781533 0.5150075764778856 0.4849924235221144 0.5150070089001408 0.4849929910998591 0.5150048809111059 0.4849951190888941 0.5151638724845393 0.4848361275154607 0.5149997133869994 0.4850002866130007 0.5149992568456829 0.4850007431543171 0.5149976587280042 0.4850023412719957 0.5150543344761879 0.4849456655238122 0.5149960130910637 0.4850039869089363 0.514995898825908 0.485004101174092 0.5149953561538527 0.4850046438461472 0.5151568152401878 0.4848431847598123 0.514992574909471 0.485007425090529 0.5149921321495138 0.4850078678504863 0.5149905253908091 0.4850094746091909 0.5150472333280234 0.4849527666719766 0.514989080330744 0.485010919669256 0.5149889692141784 0.4850110307858216 0.5149884265527478 0.4850115734472521 0.5150859500956942 0.4849140499043058 0.5149894739916392 0.4850105260083608 0.5149892864931582 0.4850107135068417 0.5149883891545055 0.4850116108454945 0.5150263836741498 0.4849736163258502 0.514987993082209 0.4850120069177911 0.5149879385500925 0.4850120614499076 0.5149875901256801 0.4850124098743199 0.5151356564864181 0.4848643435135818 0.5149864834505 0.4850135165494999 0.5149860980434122 0.4850139019565879 0.5149846724889102 0.4850153275110898 0.5150377210117453 0.4849622789882547 0.5149830713148614 0.4850169286851385 0.5149829720496362 0.4850170279503639 0.5149824711540593 0.4850175288459407 0.5150227610284557 0.4849772389715443 0.5149823309814807 0.4850176690185193 0.5149822525805494 0.4850177474194506 0.5149818821446214 0.4850181178553787 0.514997986118081 0.4850020138819189 0.514981693380362 0.485018306619638 0.5149816703232916 0.4850183296767084 0.5149815240962764 0.4850184759037235 0.5150221389595834 0.4849778610404166 0.5149818486713418 0.4850181513286583 0.5149817725477791 0.485018227452221 0.5149814023655731 0.485018597634427 0.5149974175594153 0.4850025824405846 0.5149812052004086 0.4850187947995914 0.5149811826879491 0.485018817312051 0.5149810369909192 0.4850189630090808 0.5150082718811037 0.4849917281188964 0.5149813951795957 0.4850186048204042 0.5149813574488781 0.485018642551122 0.5149811167273024 0.4850188832726975 0.5149925113148743 0.4850074886851257 0.5149810611081568 0.4850189388918432 0.514981048151935 0.485018951848065 0.5149809463485862 0.4850190536514137 0.5151224124029872 0.4848775875970128 0.5149776640131433 0.4850223359868567 0.5149772800060798 0.4850227199939204 0.5149758920298992 0.4850241079701009 0.5150267874701134 0.4849732125298866 0.5149742339257053 0.4850257660742947 0.5149741359524375 0.4850258640475625 0.5149736532887178 0.4850263467112821 0.5150123983101227 0.4849876016898774 0.5149734924822237 0.4850265075177762 0.5149734149831344 0.4850265850168656 0.5149730577705906 0.4850269422294096 0.5149884726935623 0.4850115273064377 0.5149728782194705 0.4850271217805294 0.514972855671761 0.485027144328239 0.5149727155758661 0.485027284424134 0.5150117886233763 0.4849882113766236 0.5149730120964351 0.4850269879035647 0.5149729368721246 0.4850270631278753 0.5149725798124524 0.4850274201875476 0.5149878935849174 0.4850121064150825 0.5149723751237396 0.4850276248762604 0.5149723531176464 0.4850276468823535 0.5149722135110941 0.4850277864889058 0.5149982815251746 0.4850017184748254 0.5149725540861647 0.4850274459138352 0.5149725171851808 0.4850274828148193 0.5149722865170795 0.4850277134829205 0.5149831706299649 0.4850168293700352 0.5149722392527582 0.4850277607472418 0.5149722267031802 0.4850277732968198 0.5149721294732677 0.4850278705267324 0.5150572577163747 0.4849427422836254 0.5149735100930353 0.4850264899069646 0.5149733857412393 0.4850266142587608 0.5149726339555552 0.485027366044445 0.515007520513744 0.484992479486256 0.5149723612028643 0.4850276387971357 0.514972320141352 0.485027679858648 0.5149720084450468 0.4850279915549533 0.5149978926731575 0.4850021073268425 0.5149721339828081 0.4850278660171919 0.5149721027740071 0.485027897225993 0.5149718747254545 0.4850281252745454 0.5149830092515509 0.4850169907484491 0.5149718358660657 0.4850281641339343 0.5149718242942823 0.4850281757057176 0.5149717256532049 0.4850282743467951 0.5149976988120222 0.4850023011879779 0.5149720758618482 0.4850279241381517 0.5149720452654865 0.4850279547345137 0.5149718182336459 0.4850281817663541 0.5149828977365928 0.4850171022634072 0.514971787725157 0.4850282122748431 0.5149717763256571 0.485028223674343 0.5149716782148716 0.4850283217851285 0.514990327553859 0.485009672446141 0.5149719199337264 0.4850280800662736 0.5149719010238364 0.4850280989761636 0.514971739013652 0.485028260986348 0.5149798399615068 0.4850201600384934 0.5149717219750309 0.4850282780249692 0.5149717142827753 0.4850282857172245 0.5149716427230134 0.4850283572769867 0.5165397129973671 0.4834602870026329 0.5162931202251476 0.4837068797748525 0.5162927487333849 0.483707251266615 0.5162901708848877 0.4837098291151123 0.5165377767006586 0.4834622232993415 0.5162924970155791 0.4837075029844209 0.5162921278065525 0.4837078721934474 0.5162895641886399 0.48371043581136 0.516539009299044 0.4834609907009561 0.5162917544447097 0.4837082455552903 0.5162913821850931 0.483708617814907 0.5162887978426899 0.48371120215731 0.5165367710673109 0.4834632289326891 0.5162908321770551 0.4837091678229448 0.5162904622025951 0.4837095377974049 0.5162878921188244 0.4837121078811756 0.5165340102647926 0.4834659897352074 0.5162887446360359 0.4837112553639641 0.5162883735931579 0.4837116264068421 0.5162858067630431 0.4837141932369569 0.5165321172571153 0.4834678827428847 0.5162881617808296 0.4837118382191704 0.5162877930254901 0.48371220697451 0.5162852404156108 0.4837147595843892 0.5165332665481012 0.4834667334518987 0.5162873716812056 0.4837126283187944 0.5162869999122588 0.4837130000877411 0.5162844269178296 0.4837155730821705 0.5165313515384949 0.483468648461505 0.5162867695938168 0.4837132304061833 0.516286400114238 0.4837135998857621 0.5162838413667339 0.4837161586332661 0.5165326186401388 0.4834673813598611 0.5162867955176481 0.4837132044823519 0.5162864253699359 0.4837135746300642 0.5162838559088405 0.4837161440911595 0.5165312098619602 0.4834687901380398 0.5162866953036215 0.4837133046963785 0.5162863274283589 0.4837136725716411 0.5162837721465047 0.4837162278534953 0.51653215496751 0.4834678450324899 0.5162856714411352 0.4837143285588648 0.5162853005263418 0.4837146994736583 0.5162827245880611 0.4837172754119389 0.5165300532195501 0.4834699467804499 0.5162848811218636 0.4837151188781365 0.5162845124837138 0.4837154875162862 0.516281950752729 0.4837180492472711 0.5165271599255832 0.4834728400744168 0.5162826622414254 0.4837173377585746 0.5162822925454319 0.4837177074545681 0.5162797340960601 0.4837202659039399 0.516525336939473 0.483474663060527 0.516282144863533 0.4837178551364669 0.5162817774452037 0.4837182225547964 0.5162792331643956 0.4837207668356045 0.516526394668078 0.4834736053319219 0.5162812693672769 0.4837187306327231 0.5162808989456151 0.4837191010543849 0.5162783343477039 0.4837216656522961 0.5165245955568845 0.4834754044431157 0.5162807786047491 0.4837192213952508 0.5162804104650687 0.4837195895349312 0.5162778600625504 0.4837221399374496 0.5165138264057422 0.4834861735942578 0.5162691705172977 0.4837308294827024 0.5162688021609189 0.483731197839081 0.5162662449869008 0.4837337550130993 0.5165117956033677 0.4834882043966322 0.5162684418180089 0.4837315581819912 0.5162680757225777 0.4837319242774222 0.5162655326586162 0.4837344673413838 0.5165126231920058 0.4834873768079944 0.5162673099258655 0.4837326900741344 0.5162669408024849 0.4837330591975153 0.5162643771819158 0.4837356228180841 0.5165108936486141 0.4834891063513859 0.516266885572056 0.483733114427944 0.516266518721477 0.483733481278523 0.5162639692371849 0.4837360307628151 0.5165080762970891 0.483491923702911 0.5162647401288523 0.4837352598711476 0.5162643722229404 0.4837356277770595 0.5162618260153766 0.4837381739846233 0.5165063062395046 0.4834936937604955 0.5162642693936479 0.4837357306063521 0.516263903753673 0.483736096246327 0.5162613716449853 0.4837386283550146 0.5165072257659125 0.4834927742340874 0.5162632649084646 0.4837367350915353 0.5162628962804903 0.4837371037195097 0.5162603439519548 0.4837396560480451 0.5165055185539775 0.4834944814460225 0.5162628596493406 0.4837371403506594 0.5162624932893546 0.4837375067106454 0.5162599550872619 0.4837400449127381 0.5165070493725649 0.4834929506274353 0.516263154957726 0.483736845042274 0.5162627879302348 0.4837372120697652 0.5162602390543105 0.4837397609456896 0.5165051219049004 0.4834948780950996 0.5162625251551229 0.4837374748448771 0.5162621603824188 0.4837378396175811 0.5162596255656187 0.4837403744343812 0.5165060024605771 0.4834939975394229 0.5162614523641708 0.4837385476358291 0.5162610845765929 0.483738915423407 0.516258529269937 0.4837414707300629 0.5165044478888433 0.4834955521111568 0.5162611983110402 0.4837388016889598 0.5162608327798898 0.4837391672201101 0.5162582915603862 0.4837417084396138 0.5165014017789026 0.4834985982210974 0.5162588253546048 0.4837411746453953 0.5162584587804482 0.4837415412195517 0.5162559208645894 0.4837440791354106 0.5164994874988622 0.4835005125011378 0.5162582059322425 0.4837417940677575 0.5162578416178671 0.4837421583821329 0.5162553177502677 0.4837446822497324 0.5165005460229435 0.4834994539770564 0.5162573464740369 0.4837426535259632 0.5162569791811414 0.4837430208188587 0.5162544351610408 0.4837455648389593 0.5164987990098208 0.4835012009901793 0.51625689702505 0.4837431029749499 0.5162565319946555 0.4837434680053444 0.5162540020486375 0.4837459979513625 0.516517266452162 0.4834827335478379 0.5162633256487224 0.4837366743512776 0.516262942602345 0.4837370573976549 0.5162602869529355 0.4837397130470646 0.5165147089167139 0.483485291083286 0.5162621218040263 0.4837378781959738 0.5162617411128462 0.4837382588871539 0.5162591001412853 0.4837408998587148 0.5165201591317573 0.4834798408682427 0.5162655378320626 0.4837344621679373 0.5162651539948947 0.4837348460051053 0.516262491671335 0.483737508328665 0.5165155237746594 0.4834844762253406 0.5162622590178981 0.483737740982102 0.5162618775387289 0.483738122461271 0.5162592299219173 0.4837407700780826 0.5165107961050859 0.4834892038949142 0.516258213832443 0.483741786167557 0.5162578312339891 0.483742168766011 0.5162551868366306 0.4837448131633694 0.5165104495087086 0.4834895504912914 0.516259218044999 0.4837407819550009 0.5162588378080268 0.4837411621919731 0.5162562080793219 0.4837437919206781 0.5165105093484524 0.4834894906515477 0.5162572802815222 0.4837427197184777 0.5162568969355356 0.4837431030644644 0.5162542462022118 0.4837457537977881 0.5165095402334244 0.4834904597665755 0.5162576647638429 0.4837423352361571 0.5162572837836931 0.4837427162163069 0.5162546477461825 0.4837453522538175 0.5165064926744588 0.4834935073255413 0.5162533452057799 0.48374665479422 0.5162529635462499 0.48374703645375 0.5162503165464925 0.4837496834535077 0.5165104523524564 0.4834895476475435 0.5162586540640672 0.4837413459359329 0.5162582747514329 0.4837417252485671 0.5162556423785424 0.4837443576214578 0.5165124384266636 0.4834875615733364 0.5162586123255053 0.4837413876744947 0.516258229877675 0.4837417701223251 0.5162555762221529 0.4837444237778472 0.5165064346872104 0.4834935653127898 0.5162539603964564 0.4837460396035435 0.5162535802981668 0.4837464197018331 0.5162509412949681 0.483749058705032 0.5165051519565451 0.4834948480434548 0.5162533614469146 0.4837466385530854 0.5162529802382048 0.4837470197617951 0.5162503444857459 0.4837496555142542 0.5165029101508747 0.4834970898491254 0.5162524656817299 0.4837475343182701 0.5162520868258055 0.4837479131741945 0.5162494656878323 0.4837505343121676 0.5165050093156468 0.4834949906843533 0.516252573670565 0.4837474263294349 0.5162521917169427 0.4837478082830574 0.5162495496450161 0.4837504503549839 0.5165010505555341 0.483498949444466 0.5162499637209084 0.4837500362790917 0.516249584121496 0.4837504158785039 0.5162469566909753 0.4837530433090247 0.5164907012188644 0.4835092987811355 0.5162387559734911 0.4837612440265088 0.5162383761628895 0.4837616238371105 0.5162357418243712 0.4837642581756289 0.5164890029177456 0.4835109970822545 0.5162384002052251 0.4837615997947749 0.5162380227294203 0.4837619772705797 0.5162354029439431 0.483764597056057 0.516489291746416 0.4835107082535839 0.5162366707917592 0.4837633292082408 0.5162362901952252 0.483763709804775 0.5162336492299712 0.4837663507700289 0.5164880281817593 0.4835119718182407 0.5162367526273858 0.4837632473726142 0.516236374368484 0.483763625631516 0.5162337479864139 0.4837662520135861 0.51648526391646 0.48351473608354 0.5162346697184664 0.4837653302815336 0.5162342903584886 0.4837657096415113 0.5162316672198495 0.4837683327801507 0.5164829655635497 0.4835170344364504 0.5162337108749426 0.4837662891250575 0.5162333338542677 0.4837666661457322 0.5162307252582133 0.4837692747417867 0.5164838998192896 0.4835161001807105 0.5162326634801461 0.4837673365198539 0.5162322833756809 0.4837677166243191 0.5162296539463315 0.4837703460536684 0.5164826765764579 0.4835173234235422 0.516232782621088 0.4837672173789121 0.5162324048629716 0.4837675951370284 0.5162297900039579 0.4837702099960421 0.5164818285696635 0.4835181714303364 0.5162306683091611 0.4837693316908389 0.5162302898692674 0.4837697101307327 0.5162276640893665 0.4837723359106335 0.5164804764282986 0.4835195235717014 0.5162306540652164 0.4837693459347837 0.5162302779527535 0.4837697220472466 0.5162276666741208 0.4837723333258792 0.5164824945400552 0.4835175054599447 0.5162306603639812 0.4837693396360188 0.5162302811415097 0.4837697188584904 0.5162276487518293 0.4837723512481707 0.5164808498335267 0.4835191501664733 0.5162303563988533 0.4837696436011468 0.5162299795041638 0.4837700204958362 0.516227361644798 0.483772638355202 0.5164782178076349 0.4835217821923651 0.5162284069511313 0.4837715930488689 0.5162280289652356 0.4837719710347646 0.5162254143794725 0.4837745856205275 0.5164759934428769 0.4835240065571231 0.5162275174689406 0.4837724825310594 0.5162271418138497 0.4837728581861504 0.5162245417178326 0.4837754582821675 0.5164779415305855 0.4835220584694145 0.5162274901355687 0.4837725098644314 0.516227111409481 0.4837728885905191 0.516224490549122 0.4837755094508781 0.5164754155153356 0.4835245844846644 0.5162263017850139 0.4837736982149861 0.5162259253936886 0.4837740746063113 0.5162233190511711 0.4837766809488289 0.5164214002259049 0.4835785997740952 0.5161795235955918 0.4838204764044081 0.5161791599695891 0.4838208400304109 0.5161766329304864 0.4838233670695135 0.5164196399234919 0.4835803600765082 0.5161790489862596 0.4838209510137404 0.516178687590319 0.4838213124096809 0.5161761744738393 0.4838238255261607 0.5164207409145468 0.4835792590854532 0.5161782129884487 0.4838217870115513 0.5161778486072735 0.4838221513927266 0.5161753151796651 0.4838246848203348 0.5164187723486116 0.4835812276513885 0.5161775329442584 0.4838224670557415 0.5161771707952109 0.4838228292047891 0.5161746513181567 0.4838253486818435 0.5164157681972329 0.4835842318027671 0.5161752057410179 0.4838247942589821 0.5161748425767112 0.4838251574232887 0.5161723264898843 0.4838276735101158 0.5164139386909001 0.4835860613091 0.5161746590017051 0.4838253409982948 0.5161742980718121 0.4838257019281879 0.5161717958963216 0.4838282041036784 0.5164150423144729 0.4835849576855271 0.5161738608632477 0.4838261391367523 0.5161734969841312 0.4838265030158689 0.5161709748325684 0.4838290251674317 0.5164132054928511 0.483586794507149 0.5161733095053847 0.4838266904946152 0.51617294786424 0.4838270521357601 0.5161704396504414 0.4838295603495587 0.5164146946947127 0.4835853053052872 0.5161735716697314 0.4838264283302686 0.5161732093565447 0.4838267906434552 0.5161706905235541 0.483829309476446 0.5164128515143681 0.483587148485632 0.5161730097463873 0.4838269902536128 0.5161726496543 0.4838273503457 0.516170144693532 0.4838298553064679 0.5164139070322781 0.483586092967722 0.5161721343908584 0.4838278656091415 0.5161717713239431 0.483828228676057 0.5161692461188043 0.4838307538811957 0.5164122470335862 0.4835877529664137 0.5161717584944869 0.4838282415055132 0.5161713976520298 0.4838286023479702 0.516168886346888 0.483831113653112 0.5164090915200419 0.4835909084799581 0.5161692809564386 0.4838307190435615 0.5161689191074762 0.4838310808925238 0.5161664112196257 0.4838335887803742 0.5164072321160227 0.4835927678839773 0.5161686998678241 0.4838313001321759 0.5161683402449335 0.4838316597550665 0.516165846217993 0.483834153782007 0.5164082426716199 0.48359175732838 0.5161678146919715 0.4838321853080285 0.5161674521304072 0.4838325478695927 0.5161649381935423 0.4838350618064577 0.5164064241992614 0.4835935758007386 0.5161672772153286 0.4838327227846715 0.5161669168829579 0.4838330831170421 0.5161644168329954 0.4838355831670046 0.5163956257635609 0.4836043742364391 0.516155647295921 0.4838443527040789 0.5161552867362705 0.4838447132637296 0.5161527799441604 0.4838472200558396 0.5163937953236562 0.4836062046763438 0.5161550918929424 0.4838449081070577 0.5161547335432611 0.4838452664567387 0.5161522405557959 0.4838477594442041 0.5163948412048339 0.4836051587951661 0.516154216089425 0.4838457839105749 0.5161538547790605 0.4838461452209396 0.5161513416448674 0.4838486583551325 0.5163931143787739 0.4836068856212261 0.5161537671842307 0.4838462328157694 0.5161534080857956 0.4838465919142044 0.5161509087836861 0.4838490912163139 0.5163899839480962 0.4836100160519037 0.5161513122927987 0.4838486877072014 0.516150952194982 0.4838490478050179 0.5161484563029997 0.4838515436970003 0.5163882310524293 0.4836117689475707 0.5161508315351434 0.4838491684648567 0.516150473652213 0.483849526347787 0.5161479915534505 0.4838520084465496 0.5163892500321013 0.4836107499678987 0.5161499637719887 0.4838500362280113 0.5161496029655385 0.4838503970344616 0.5161471010522432 0.483852898947757 0.5163874047650101 0.48361259523499 0.5161493933488923 0.4838506066511077 0.516149034760448 0.483850965239552 0.5161465466665081 0.4838534533334918 0.5163889287603524 0.4836110712396475 0.5161496958861118 0.4838503041138882 0.5161493366259191 0.4838506633740808 0.5161468379528117 0.4838531620471884 0.5163870697335433 0.4836129302664567 0.5161491075469965 0.4838508924530037 0.516148750485662 0.483851249514338 0.5161462655677028 0.4838537344322972 0.5163881434579253 0.4836118565420748 0.5161482656279924 0.4838517343720076 0.5161479056185935 0.4838520943814064 0.5161454006195423 0.4838545993804577 0.5163863340318859 0.4836136659681142 0.5161477297234736 0.4838522702765263 0.5161473719190602 0.4838526280809398 0.516144880702303 0.483855119297697 0.5163832717643246 0.4836167282356754 0.5161453439953728 0.4838546560046272 0.516144985200362 0.4838550147996379 0.5161424974202947 0.4838575025797054 0.5163815051212353 0.4836184948787649 0.5161448450989508 0.4838551549010493 0.5161444885090166 0.4838555114909835 0.5161420144720538 0.4838579855279462 0.516382487120013 0.4836175128799869 0.5161439463621331 0.4838560536378669 0.5161435868602339 0.4838564131397661 0.5161410930743874 0.4838589069256126 0.5163806758420834 0.4836193241579166 0.5161434054992409 0.4838565945007591 0.5161430482050191 0.483856951794981 0.51614056818809 0.4838594318119099 0.51639845997687 0.4836015400231299 0.5161494105347735 0.4838505894652265 0.5161490356470215 0.4838509643529785 0.5161464326973457 0.4838535673026543 0.5163962318076886 0.4836037681923113 0.5161485076363997 0.4838514923636004 0.5161481350504847 0.4838518649495153 0.5161455464593541 0.4838544535406459 0.5163981138527551 0.4836018861472448 0.5161483950069542 0.4838516049930457 0.516148019342385 0.483851980657615 0.5161454098269982 0.4838545901730017 0.5163961353129559 0.4836038646870441 0.5161477446842914 0.4838522553157088 0.5161473713249027 0.4838526286750972 0.5161447761968306 0.4838552238031694 0.5163933273750512 0.4836066726249488 0.5161456230855277 0.4838543769144721 0.5161452486594185 0.4838547513405815 0.5161426568938146 0.4838573431061855 0.516390554169433 0.4836094458305671 0.5161441721712903 0.4838558278287097 0.516143800052069 0.4838561999479311 0.5161412226338891 0.4838587773661108 0.5163917254960357 0.4836082745039643 0.5161433849859338 0.4838566150140662 0.516143009824892 0.483856990175108 0.5161404118262712 0.4838595881737287 0.5163900179938158 0.4836099820061842 0.5161430025748802 0.4838569974251197 0.5161426297235664 0.4838573702764337 0.516140046099791 0.4838599539002088 0.5163915535132211 0.4836084464867789 0.516143280880809 0.483856719119191 0.5161429073483332 0.4838570926516667 0.5161403128616762 0.4838596871383238 0.5163902912315216 0.4836097087684784 0.5161433393259178 0.4838566606740822 0.5161429680852713 0.4838570319147287 0.5161403879054936 0.4838596120945066 0.5163910857757608 0.4836089142242392 0.5161421454612208 0.4838578545387792 0.5161417711536751 0.483858228846325 0.5161391701180759 0.4838608298819242 0.5163902575249717 0.4836097424750284 0.5161426408793333 0.4838573591206667 0.5161422688678901 0.4838577311321101 0.5161396821680254 0.4838603178319745 0.5163861405361515 0.4836138594638486 0.5161392113094766 0.4838607886905234 0.5161388382410882 0.4838611617589119 0.5161362549313767 0.4838637450686234 0.5163838469019142 0.4836161530980858 0.5161382353805819 0.4838617646194183 0.5161378646095942 0.4838621353904057 0.516135295595282 0.4838647044047179 0.5163850836331393 0.4836149163668607 0.5161375198206427 0.4838624801793572 0.5161371460198738 0.483862853980126 0.516134556493281 0.483865443506719 0.5163838286574159 0.4836161713425841 0.5161375853716876 0.4838624146283123 0.5161372138717848 0.4838627861282152 0.516134638667775 0.4838653613322251 0.5163725867056527 0.4836274132943474 0.516125492783037 0.483874507216963 0.5161251210571086 0.4838748789428914 0.5161225389756788 0.4838774610243212 0.5163708943059415 0.4836291056940585 0.5161251147169658 0.4838748852830344 0.5161247452727985 0.4838752547272016 0.5161221774280365 0.4838778225719636 0.5163718483359888 0.4836281516640112 0.5161240897957558 0.4838759102042443 0.5161237172992583 0.4838762827007416 0.5161211286992148 0.4838788713007853 0.5163696612767356 0.4836303387232643 0.5161232199970345 0.4838767800029654 0.5161228497829717 0.4838771502170282 0.5161202754486176 0.4838797245513825 0.5163672840742931 0.4836327159257068 0.5161215277757332 0.4838784722242668 0.5161211565145984 0.4838788434854016 0.516118585563935 0.483881414436065 0.5163654250846348 0.4836345749153653 0.5161209801769763 0.4838790198230237 0.5161206112011779 0.4838793887988221 0.5161180544760835 0.4838819455239166 0.5163662209359181 0.4836337790640818 0.5161198329872265 0.4838801670127735 0.5161194609964106 0.4838805390035895 0.5161168838575517 0.4838831161424483 0.5163643825361933 0.4836356174638067 0.5161193086602937 0.4838806913397064 0.5161189389588443 0.4838810610411557 0.516116376073091 0.483883623926909 0.5163659874311959 0.483634012568804 0.5161196620634155 0.4838803379365844 0.516119291678658 0.483880708321342 0.5161167179703451 0.483883282029655 0.5163642376389339 0.4836357623610659 0.5161192220679448 0.4838807779320552 0.5161188539557045 0.4838811460442957 0.5161162944327755 0.4838837055672246 0.5163654574568759 0.4836345425431242 0.5161184691613431 0.483881530838657 0.5161180980067068 0.4838819019932931 0.516115517796817 0.4838844822031829 0.516364145318548 0.483635854681452 0.5161184697419917 0.4838815302580083 0.5161181008654525 0.4838818991345475 0.5161155348687898 0.4838844651312102 0.5163602202110402 0.4836397797889599 0.5161152307412464 0.4838847692587535 0.5161148608230313 0.4838851391769688 0.5161122982386852 0.4838877017613148 0.5163582695332449 0.4836417304667549 0.5161145868749203 0.4838854131250798 0.5161142192344478 0.4838857807655522 0.5161116708240205 0.4838883291759793 0.5163595379488674 0.4836404620511328 0.5161139184531403 0.4838860815468598 0.5161135478082569 0.483886452191743 0.5161109790514532 0.4838890209485467 0.516357666183814 0.4836423338161861 0.5161133562387206 0.4838866437612793 0.516112987875195 0.483887012124805 0.5161104333195061 0.4838895666804939 0.5059871722037033 0.4940128277962967 0.5057460225606359 0.4942539774393639 0.505745660162532 0.4942543398374681 0.5057431407253918 0.4942568592746082 0.5059853506760189 0.494014649323981 0.505745484377206 0.494254515622794 0.5057451242044708 0.4942548757955291 0.5057426186675486 0.4942573813324515 0.5059862445609233 0.4940137554390767 0.505744446811797 0.494255553188203 0.5057440836628726 0.4942559163371274 0.505741557872316 0.4942584421276839 0.5059846193035897 0.4940153806964102 0.505744107762799 0.494255892237201 0.5057437468416586 0.4942562531583414 0.5057412349791099 0.49425876502089 0.5059816083355712 0.4940183916644289 0.5057417608730918 0.4942582391269083 0.5057413989199372 0.4942586010800627 0.5057388902980134 0.4942611097019866 0.5059796728895361 0.494020327110464 0.505741105917916 0.494258894082084 0.5057407461951216 0.4942592538048785 0.5057382514627493 0.4942617485372507 0.5059808098499494 0.4940191901500507 0.5057403464487431 0.4942596535512568 0.5057399837856162 0.4942600162143837 0.5057374691328126 0.4942625308671875 0.5059789361036449 0.4940210638963551 0.5057397558959429 0.494260244104057 0.5057393954661318 0.4942606045338683 0.5057368947289906 0.4942631052710094 0.505980669690382 0.494019330309618 0.5057402723907515 0.4942597276092486 0.5057399113027086 0.4942600886972915 0.5057374000594218 0.4942625999405783 0.5059787682911776 0.4940212317088222 0.5057396499037326 0.4942603500962675 0.5057392910319476 0.4942607089680523 0.505736793638392 0.494263206361608 0.5059796152104934 0.4940203847895067 0.5057385714658584 0.4942614285341416 0.5057382096293334 0.4942617903706666 0.5057356920491379 0.4942643079508621 0.5059777726068137 0.4940222273931865 0.5057380106002436 0.4942619893997565 0.5057376509821745 0.4942623490178254 0.5057351472794832 0.4942648527205169 0.5059750032665461 0.494024996733454 0.5057359064699452 0.4942640935300549 0.5057355458297457 0.4942644541702542 0.5057330453950713 0.4942669546049288 0.5059731405046938 0.4940268594953063 0.5057353197491127 0.4942646802508872 0.5057349613298188 0.4942650386701813 0.5057324747342331 0.494267525265767 0.505974309579734 0.4940256904202661 0.5057345984115552 0.4942654015884448 0.5057342370633137 0.4942657629366865 0.5057317306131658 0.4942682693868342 0.5059724589697021 0.4940275410302978 0.5057340265284145 0.4942659734715855 0.505733667404866 0.4942663325951341 0.5057311748199063 0.4942688251800936 0.5059620745076531 0.4940379254923469 0.5057228189416962 0.4942771810583038 0.5057224596013488 0.4942775403986513 0.5057199603691934 0.4942800396308067 0.505960126101453 0.4940398738985469 0.505722143282938 0.494277856717062 0.5057217861485733 0.4942782138514266 0.5057193006988464 0.4942806993011537 0.5059612577850808 0.4940387422149192 0.5057213587517909 0.4942786412482091 0.5057209986656205 0.4942790013343795 0.5057184931260971 0.494281506873903 0.5059592588084458 0.4940407411915543 0.5057206352498889 0.4942793647501112 0.5057202773738226 0.4942797226261774 0.5057177856436721 0.4942822143563279 0.5059563155160581 0.4940436844839418 0.5057183548197348 0.4942816451802651 0.5057179959273612 0.4942820040726388 0.5057155074596693 0.4942844925403306 0.5059545544161895 0.4940454455838105 0.505717863557579 0.4942821364424209 0.5057175068763232 0.4942824931236768 0.5057150321796999 0.4942849678203001 0.5059554798913518 0.4940445201086482 0.5057169076950592 0.4942830923049408 0.505716548096436 0.494283451903564 0.5057140536403707 0.4942859463596293 0.5059537318922337 0.4940462681077662 0.505716432204288 0.494283567795712 0.5057160748191664 0.4942839251808338 0.5057135941605278 0.4942864058394722 0.5059552790536718 0.4940447209463282 0.5057167677714535 0.4942832322285466 0.5057164097282019 0.4942835902717981 0.5057139186027452 0.4942860813972547 0.5059534731626948 0.4940465268373052 0.5057162302491517 0.4942837697508483 0.5057158744026374 0.4942841255973627 0.5057133970098519 0.494286602990148 0.5059544073258286 0.4940455926741713 0.505715254262175 0.494284745737825 0.5057148954758042 0.4942851045241958 0.5057123980596044 0.4942876019403956 0.505952769650926 0.4940472303490742 0.5057148877519273 0.4942851122480726 0.5057145311656849 0.4942854688343152 0.5057120475088368 0.4942879524911633 0.5059496207949104 0.4940503792050895 0.5057124027832147 0.4942875972167853 0.5057120451887899 0.49428795481121 0.5057095648212135 0.4942904351787865 0.5059478958432978 0.4940521041567021 0.5057119433010959 0.4942880566989039 0.5057115879078877 0.4942884120921122 0.5057091212617177 0.4942908787382822 0.5059489605077771 0.4940510394922229 0.505711132534206 0.494288867465794 0.5057107742368292 0.4942892257631708 0.5057082878966281 0.4942917121033719 0.5059471099757656 0.4940528900242343 0.5057105501120258 0.4942894498879742 0.5057101940189068 0.4942898059810932 0.5057077214257784 0.4942922785742215 0.5059640014196847 0.4940359985803154 0.5057156679269474 0.4942843320730525 0.5057152942597782 0.4942847057402217 0.5057126988076118 0.4942873011923882 0.505960048575588 0.4940399514244121 0.5057130380934997 0.4942869619065003 0.5057126667236052 0.4942873332763947 0.5057100856081386 0.4942899143918615 0.5059639233507597 0.4940360766492403 0.5057149236590083 0.4942850763409917 0.5057145492198157 0.4942854507801843 0.5057119472369237 0.4942880527630763 0.5059669397478011 0.494033060252199 0.5057192660366454 0.4942807339633546 0.5057188938972796 0.4942811061027204 0.505716306280885 0.4942836937191149 0.5059607615062466 0.4940392384937534 0.5057137610955123 0.4942862389044878 0.5057133878731803 0.4942866121268196 0.5057108034663483 0.4942891965336516 0.5059577041669079 0.4940422958330921 0.5057120238774553 0.4942879761225447 0.5057116529578175 0.4942883470421825 0.5057090828776781 0.4942909171223218 0.5059597046523765 0.4940402953476233 0.5057120711047661 0.4942879288952339 0.5057116971522402 0.4942883028477597 0.5057091065465226 0.4942908934534774 0.5059566738158863 0.4940433261841138 0.5057103631494704 0.4942896368505295 0.5057099915030374 0.4942900084969625 0.5057074152508442 0.4942925847491558 0.5059602528205662 0.4940397471794338 0.5057126949758976 0.4942873050241025 0.5057123226612423 0.4942876773387578 0.5057097356605731 0.494290264339427 0.5059569709170195 0.4940430290829804 0.5057107315133759 0.494289268486624 0.505710361486693 0.4942896385133072 0.5057077887708821 0.494292211229118 0.5059575542865836 0.4940424457134165 0.5057093318985754 0.4942906681014246 0.5057089588137101 0.4942910411862899 0.5057063652991359 0.4942936347008641 0.5059550827011072 0.4940449172988928 0.5057081816756107 0.4942918183243894 0.5057078108822652 0.4942921891177348 0.5057052316811996 0.4942947683188004 0.5059534546118406 0.4940465453881595 0.5057072280980852 0.4942927719019148 0.5057068562310562 0.4942931437689438 0.5057042802690817 0.4942957197309182 0.5059512763947072 0.494048723605293 0.5057063654132136 0.4942936345867865 0.5057059958393105 0.4942940041606896 0.5057034341519104 0.4942965658480896 0.505951525669441 0.494048474330559 0.5057046676092105 0.4942953323907894 0.5057042950145378 0.4942957049854623 0.5057017128693179 0.4942982871306821 0.5059502462587749 0.494049753741225 0.5057047065132783 0.4942952934867218 0.505704336214621 0.494295663785379 0.505701768370963 0.4942982316290369 0.5059405523024309 0.494059447697569 0.505694170346403 0.4943058296535971 0.5056937998339609 0.4943062001660392 0.5056912252098037 0.4943087747901964 0.5059387751314012 0.4940612248685987 0.5056937052475676 0.4943062947524324 0.5056933370122726 0.4943066629877273 0.5056907766030225 0.4943092233969774 0.5059427955967231 0.4940572044032769 0.5056957522868595 0.4943042477131404 0.5056953810069091 0.4943046189930908 0.5056927998986909 0.4943072001013091 0.5059382243219672 0.4940617756780328 0.5056924958456861 0.494307504154314 0.5056921268485035 0.4943078731514967 0.5056895599841161 0.494310440015884 0.5059345363956351 0.4940654636043648 0.5056894800726384 0.4943105199273616 0.5056891100073382 0.4943108899926619 0.5056865463758147 0.4943134536241853 0.5059321472850658 0.4940678527149342 0.5056884001504096 0.4943115998495903 0.505688032366922 0.4943119676330781 0.50568548294058 0.49431451705942 0.5059333626386682 0.4940666373613319 0.5056876777135407 0.4943123222864593 0.5056873069230761 0.494312693076924 0.5056847371371028 0.4943152628628972 0.5059318211456355 0.4940681788543644 0.5056874481536033 0.4943125518463968 0.5056870796463473 0.4943129203536528 0.5056845240918987 0.4943154759081013 0.5059332418438404 0.4940667581561596 0.505687627227553 0.494312372772447 0.5056872580547517 0.4943127419452483 0.5056846917914611 0.4943153082085388 0.5059308744177755 0.4940691255822246 0.505686567372717 0.4943134326272829 0.5056862004662897 0.4943137995337104 0.5056836483666987 0.4943163516333013 0.5059309526410205 0.4940690473589795 0.5056846782612333 0.4943153217387667 0.5056843083223603 0.4943156916776396 0.5056817355920581 0.4943182644079419 0.5059296192851761 0.4940703807148239 0.5056846553388922 0.4943153446611078 0.5056842876723028 0.4943157123276973 0.5056817291338007 0.4943182708661993 0.5059274446935632 0.4940725553064367 0.5056831540416734 0.4943168459583267 0.5056827853178254 0.4943172146821745 0.505680230041615 0.494319769958385 0.5059251272581543 0.4940748727418458 0.5056821412331682 0.4943178587668318 0.505681774782752 0.494318225217248 0.5056792336595127 0.4943207663404872 0.505926385233476 0.494073614766524 0.5056814675817488 0.4943185324182512 0.5056810981354756 0.4943189018645244 0.5056785367201707 0.4943214632798294 0.5059255391409852 0.4940744608590149 0.5056819288529534 0.4943180711470466 0.5056815616821551 0.494318438317845 0.5056790144470034 0.4943209855529967 0.5058716674098148 0.4941283325901852 0.5056351298893627 0.4943648701106373 0.5056347751640791 0.4943652248359209 0.5056323053841575 0.4943676946158425 0.5058700595604153 0.4941299404395846 0.5056347786342295 0.4943652213657706 0.5056344260829312 0.4943655739170688 0.5056319699023983 0.4943680300976018 0.5058711239024105 0.4941288760975894 0.5056339488566987 0.4943660511433012 0.5056335933928647 0.4943664066071352 0.5056311173628786 0.4943688826371213 0.5058694289926109 0.4941305710073891 0.5056335133422574 0.4943664866577426 0.5056331600555314 0.4943668399444685 0.5056306976522013 0.4943693023477986 0.5058662814697735 0.4941337185302265 0.5056310333485483 0.4943689666514517 0.5056306790802209 0.4943693209197792 0.5056282200496846 0.4943717799503156 0.5058644676996899 0.4941355323003102 0.5056304732810295 0.4943695267189704 0.5056301211916032 0.4943698788083968 0.505627675748996 0.494372324251004 0.5058654812109358 0.4941345187890643 0.505629627171176 0.4943703728288239 0.5056292722047783 0.4943707277952217 0.5056268072408682 0.4943731927591318 0.5058637032442723 0.4941362967557277 0.505629105547597 0.494370894452403 0.5056287527629261 0.4943712472370741 0.5056263014127124 0.4943736985872875 0.5058651782658059 0.4941348217341941 0.5056293773976623 0.4943706226023376 0.5056290239524058 0.4943709760475941 0.5056265621893067 0.4943734378106933 0.5058634256515964 0.4941365743484036 0.505628877045379 0.4943711229546211 0.5056285257653423 0.4943714742346577 0.5056260775522953 0.4943739224477048 0.5058644960624696 0.4941355039375305 0.5056280593199849 0.4943719406800152 0.5056277051383794 0.4943722948616205 0.5056252371412511 0.4943747628587489 0.5058627652498559 0.494137234750144 0.5056275835517305 0.4943724164482695 0.5056272315386026 0.4943727684613974 0.505624777118764 0.494375222881236 0.5058597060859403 0.4941402939140596 0.5056251929260547 0.4943748070739454 0.5056248399404956 0.4943751600595045 0.5056223889196866 0.4943776110803135 0.5058579078609334 0.4941420921390667 0.5056246440570902 0.4943753559429099 0.5056242932416236 0.4943757067583764 0.5056218557593842 0.4943781442406157 0.5058589551246845 0.4941410448753155 0.5056238375996155 0.4943761624003844 0.5056234839178588 0.4943765160821411 0.5056210269788711 0.4943789730211289 0.5058571500902047 0.4941428499097954 0.5056232845685483 0.4943767154314517 0.5056229330600097 0.4943770669399903 0.5056204896853134 0.4943795103146865 0.5058464795275344 0.4941535204724656 0.5056117982302817 0.4943882017697184 0.5056114464951355 0.4943885535048645 0.5056089965026982 0.4943910034973019 0.5058447065125787 0.4941552934874212 0.5056112714268216 0.4943887285731783 0.5056109218475224 0.4943890781524775 0.5056084853389139 0.4943915146610861 0.5058457423179047 0.4941542576820954 0.5056104280567434 0.4943895719432566 0.5056100755885512 0.4943899244114489 0.5056076193910333 0.4943923806089668 0.5058439410264927 0.4941560589735074 0.505609875759971 0.494390124240029 0.5056095254517774 0.4943904745482225 0.5056070827650407 0.4943929172349594 0.5058410273312686 0.4941589726687316 0.505607628186901 0.494392371813099 0.5056072769108014 0.4943927230891985 0.5056048376161968 0.4943951623838032 0.5058392051899381 0.4941607948100619 0.5056070493484489 0.4943929506515511 0.5056067002314543 0.4943932997685457 0.5056042744094865 0.4943957255905135 0.5058402211245279 0.4941597788754721 0.5056062203793121 0.4943937796206877 0.5056058684104839 0.4943941315895162 0.5056034232249728 0.4943965767750272 0.5058384551046976 0.4941615448953025 0.5056057003167079 0.4943942996832921 0.5056053505111879 0.4943946494888121 0.5056029188241538 0.4943970811758462 0.5058399909722318 0.4941600090277684 0.5056060384825535 0.4943939615174465 0.5056056880140135 0.4943943119859864 0.5056032459533763 0.4943967540466238 0.5058381809309194 0.4941618190690805 0.5056054703558327 0.4943945296441672 0.505605122033513 0.494394877966487 0.5056026934081089 0.494397306591891 0.5058392514621284 0.4941607485378717 0.5056046676481434 0.4943953323518568 0.5056043164489041 0.4943956835510959 0.5056018681989352 0.4943981318010648 